{"enc_weights": [[0.01765545507999344, 0.00208533362818681, -0.0021901162739585882, -0.016901255399698646, 0.0027062539089500815, -0.007951881381152938, -0.0012360726359136815, -0.0019098228180467675, 0.025162014230830008, -0.006932573584141519, 0.0019023840991583987, 0.008448908541000824, 0.004789889560333733, -3.2335584298348564e-05, -0.010245340818650627, -0.008156980387529773, 0.00874474385977808, 0.004408482174013117, -0.007905099851416414, 0.017543663798175593, 0.00039206887712290656, 0.0283086643892214, 0.015008455220415827, 0.01359418125389683, -0.003889679564457362, 0.0038122771832506813, -0.007978988640360955, 0.0028714201158695214, -0.00971950353637711, -0.01836575084719821, -0.025976612259191977, -0.018171511648518653, 0.007445856885673708, -0.0019111086909358048, 0.021310847156137694, -0.006008902648185919, -0.0004697953715595562, -0.005673369204710989, -0.004526709468969321, -0.002858690875893051, 0.009252880146182427, 0.020175880726739634, -0.008934688208776414, 0.007327274189148126, 0.003057319674946599, -0.012739593336556748, -0.010582898395308123, 0.006372675834127715, -0.006063612121239477, 0.004174945098206136, 0.009830488112874963, 0.010312475853200869, -0.0019478664769868508, 0.006157400748004934, 0.0019919885005448587, 0.00015345270052649211, -0.012025844466976727, 0.00507727893456706, 0.007419859794759047, -0.010499859878119633, 0.0007895415631094226, 0.008824461918773023, 0.011482513383760688, 0.017476316113185075, -0.013504036658234301, 0.02316409153872705, -0.010218317390519038, -0.008709290309004716, 0.013304339858975452, -0.014384211904311831, 0.0036994490220351325, 0.002091729222685713, 0.005304099705272661, 0.000719516630147191, -0.00020184434715395195, -0.012972536269085781, 0.020683982555778024, 0.017046566152433402, 0.010192785223106515, -0.004316531398443175, 0.0027094107446632354, 0.012472994665943515, -0.01217399718432607, -0.01567522420760068, -0.00709331405796559, -0.007496030169446499, -0.0005388060129350825, -0.013297880387189844, -0.008561530540165905, 0.007915643740985656, -0.0075691490793874236, 0.0022475959536694752, 0.0019058212330047154, -0.006473221615420793, 0.015258676171035098, 0.0005379675610660761, -0.0019170697825547612, 0.011165501870538589, 0.007767894421982434, 0.016631331594617684, -0.013712239335762235, 0.0038279755945036563, 0.00022998136911761227, -0.0038688293243405248, 0.00016861613590098896, 0.001412507095421595, -0.0007888001061103578, 0.008061964854773816, 0.002170456387546043, 0.00651696902117237, -0.01804026514593715, 0.00473530855048251, 0.002590293730628486, 0.00011720031125480389, 0.009083469111346255, -0.007320484930034459, -0.00796384802679762, -0.006207533581513169, 0.004982708666536941, -0.006819031912131125, -0.002741179447455304, 0.002846936062940602, 0.009445473161292291, 0.007225418074957953, 0.008286312543728904, -0.004474889143367558, -0.014565681103919282, 0.015015578580126232, 0.002754218108493579, 0.019794769193664487, -0.006236315344903031, 0.00598719888156018, 0.018170804086102603, 0.011430195735909636, 0.005791740084062308, 0.01633541193960254, 0.0014987862115684453, -0.015373171022002283, -0.0045627645282761906, 0.01252664275440275, 0.001565036462023068, 0.011147231287614238, 0.008379574708761191, -0.004150840993160862, -0.009025828827599018, -0.025011124804139234, 0.004808909638221231, -0.0018017729682500078, 0.006000230648593943, -0.006695845511366231, 0.00031113182987213827, 0.002811588270001003, 0.019107693061829543, 2.200747288113687e-05, -0.006174312215610936, 0.010959179679130984, 0.008711025338046897, -0.006745096937612515, 0.0185430600075057, 0.007063268138878733, -0.002213738799734392, -0.004799479599618124, 0.009113669215489735, -0.013099107693222565, -0.006767954013839179, -0.006339153489430213, 0.0008436500001002848, -0.0002543233126793663, -0.0037699880961763765, 0.010478307375520928, -0.00598108439976201, -0.002166240428706003, -0.008366407464240347, 0.006832947921335761, 0.010181776917981902, -0.00836843916500417, 0.005069860833037584, -0.005924017718175414, 0.005408080011031788, 0.028686076516373556, 0.005745660314182743, 0.01823956348920799, 0.0077226779117408485, 0.02445279521162116, 0.020469843729650865, 0.023062961493374126, 0.021704961240816414, 0.007400230600404248, 0.00164789289130299, -0.010038204410793651, 0.0013471348124898962, -0.006565607959334927, -0.001188293697145763, -0.006306442268819048, -0.011095302237221202, 0.00925774114777915, 0.022495022619677497, -0.010810335728173177, -0.006477870617481032, 0.00298378290551678, -0.009358152842562093, -0.023907826359370745, 0.016923956595017765, 0.017622135512582994, 3.074255684900542e-05, 0.0017496496239871346, -0.007990755557984694, 0.0027326602882157378, -0.01333643882650228, 0.00529675374493876, 0.016788442289175476, 0.005172222633183988, 0.01015405211812646, 0.023925840451109244, 0.007328226947956938, 0.0038482218223788917, 0.01112096844363746, 0.0170035029594115, 0.006245078481099932, 0.010180763810915941, -0.014181259809861992, 0.004820638166317871, 0.016060287399292557, 0.004281073822429673, -0.005240895726017309, 0.021816942815600315, 0.00693956148161227, 0.0005347649662642356, 0.011280219033274695, -0.007417755034426821, -0.00427334288846866, -0.007840970288847976, -0.006273234070044907, -0.006003776627542164, 0.010247486725374476, -0.002739262876909001, -0.019974108229686042, -0.001678375945413724, -0.0025646526477667566, 0.00815397689471988, 0.019123443820326682, 0.019318154924860543, 0.016686917064224045, 0.015530843676353509, -0.00640736942027304, -0.010395750117925547, -0.006796465498417511, -0.005392683776287811, -0.0032041564127277726, -0.0007643747265990578, 0.005337290194957989, -0.0010519825304732694, -0.021250994865602526, -0.01437179256313926, 0.009023675986675549, 0.006875246102728787, 0.005143764140404346, 0.013610600972432647, -0.01382034603781418, -0.002515501508652124, 0.008995683334452529, -0.00040402762053331993, 0.0021314721501385927, 0.006937528870336303, -0.0004902805134324962, 0.0065926198211387795, 0.005903491784810709, 0.013050796132529503, 0.025093433489091682, 0.030214037166594328, 0.006512940693857698, 0.00817406974040814, -0.0188699960625283, 0.022988614316286883, 0.002307515321556462, 0.009122510026432867, -0.005836595404298384, 0.00818749169723083, -0.0003232697652193261, 0.006436579827890176, 0.004838759873968417, -0.01667928839860986, -0.0007474109130710589, -0.01060489769893966, 0.011177961063771702, 0.012135848041085346, 0.00264698939527474, -0.009214087573002015, -0.0046888005237409516, -0.004802688201590204, -0.009222145007375757, -0.013677309649549807, -0.012799768080272588, -0.009756529931019251, 0.006868173381290883, 0.006647677262014848, -0.0017033229021783624, 0.026287455022485, 0.007466726461059455, -0.008532620263100801, 0.0089470056184335, 0.005737071128812956, 0.0026373536648626426, 0.005083192335226858, 0.0016224319046897347, 0.010947846775569597, 0.01132472791866828, 0.01366495332347669, -0.0012095149716306432, 0.0037372579154128214, 0.005669822957054394, -0.0029051214523763947, 0.006417348455898946, 0.00582986263521501, -0.007786875495479387, -0.008111875852331986, -0.01375346657998838, -0.014177279193538384, -0.01385131026016077, 0.005737704147667375, -0.005101011695511436, 0.007899083054852532, 0.013646595041235868, 0.024353384202969754, 0.002576316874850661, 0.006599099260835371, 0.0014275250069759003, -0.01606919194561829, 0.016869012137110725, 0.0032749546406086252, -0.013220167747354641, 0.0030994801877182523, -0.015418143468488799, -0.008893263055779664, 0.009008508338684225, 0.0016006161312013222, -0.010651128851243002, -0.005746822153818586, -0.013401999997105793, 0.006088529251932452, -0.014965527456106104, 0.0008936792273328977, 0.009299002928041268, -0.007146605671372198, -0.015159672138744387, -0.012166101208561625, 0.011837703587685, 0.0051104110784469465, 0.0171811761984142, 0.010421874377461908, 0.0265126942208243, 0.03333256656474068, 0.031734656222837894, 0.00988821007171835, 0.006958520644628034, -0.015740246585207725, 0.0075626895597772515, -0.006960461156901562, -0.018519541733536586, 0.011784047936527247, 0.004741025214905685, 0.007122867079607278, 0.006276467163164947, -0.005931511593143403, 0.0018806953404627558, 0.005465893250762931, 0.004587447659799509, -0.015541792754396747, -0.006011974674210164, -0.001881473184937312, -0.004142640459171445, -0.021113444614012995, 0.007494093959918778, -0.003025822510214683, -0.0042750789999649015, 0.011472736047110792, 0.026540405924664865, 0.014555410571624109, 0.025998591862194716, 0.0316516600189925, 0.03787103202526391, 0.0067073039849100185, 0.001232781881133071, 0.005689593341993213, 0.002208643928095271, 0.0007881845064928721, 0.008546717718943789, -0.0065963797057344, 0.013653794381929017, -0.006303248013961284, -0.006842893151291921, 0.018432801833920917, 0.025002990886374588, 0.0011835256535865923, -0.019417721194637753, -0.013230729610662795, 0.015406687432125888, 0.003358116133131866, -0.028146760554824624, -0.00901634551535896, -0.022311685097646004, -0.01744747558941905, 0.005322594318502268, 0.03152623269194507, 0.005107054806806914, 0.01220667485341965, 0.009445966063421903, 0.046697019919892974, 0.028757418406214628, 0.017601186794659968, -0.0055978120338990005, -0.0026154682300465935, -0.018196606308624703, 0.0019677555366877384, -0.005294676814557287, -0.02578524014964117, -0.005782167518473247, 0.016810129323940146, -0.0036357359688996118, 0.009629443634340188, -0.010593830842352327, 0.004760559191567011, -0.021499812514125784, 0.02140234791327931, 0.0015550515454559378, -0.004059187809270156, -0.000858062494433717, -0.013064408174203514, -0.015976392596976176, -0.006462857560963082, -0.0006157078492506604, -0.006756115004127166, 0.019515321436460797, 0.04191098432350416, 0.028008258160037592, 0.015387765691940175, 0.01692628658997748, 0.017184183142459935, 0.0002827249232997476, -0.00850925211084635, -0.019057793230881644, -0.004364837036446667, 0.008436354477180165, 6.473418055336463e-05, -0.025758175531009623, -0.016016361648478233, 0.013202004719919043, -0.014765526344268965, 0.012461309271496185, 0.010614276661483046, -0.013748640531427608, -0.01616342602603901, -0.012684817035331067, -0.005861425862833473, -0.017610619665764146, -0.014621327530313326, -0.009756746224845972, -0.00965240486143246, 0.020878732103410833, 0.018830230910505674, 0.025204435011760385, 0.011126885413996639, 0.04404394476951493, 0.01780784134081634, 0.010461179330847021, 0.002629823990526286, -0.007462276567217513, 0.01625988657936391, 0.012280091995053009, -0.019479762825110228, -0.00029873830544679177, 0.005691468300971861, -0.004604098171179, -0.007945473259405204, 0.010021477017820194, -0.004944527186805959, 0.0014209037700219473, -0.006400186354837407, -0.007748086435011358, 0.0013134476314424352, -0.0007751164987255406, 0.0022427215262630705, -0.002216875567730477, -0.02060165810605142, -0.01153643866776927, 0.01399395131750794, 0.030173816362167736, 0.015473549197300852, 0.01139467549557204, 0.032746468645440806, 0.018704233227912138, 0.010264226246765576, 0.006304618755146194, -0.00011651606280558408, -0.015461305357848499, -0.016024435541732742, 0.008246301436463006, -0.0005183825013203851, -0.010288879821545825, -0.00026086329483339816, -5.023849936720708e-05, -0.00701323950268918, -0.0061044294461062255, -0.0006403473032699555, -0.01687787931982977, -0.005052078033981486, -0.008221027759671972, -0.015463075791435958, -0.0033167506113998403, 0.0007636787951105068, -0.014728212676988367, -0.011219964949961666, 0.018851719177148188, 0.00010708133955908742, 0.01157865895600172, 0.03220481820394964, 0.013407280500319455, 0.018593385254765497, 0.014243843908370808, 0.02922038400249538, -0.004462828201897031, -0.0009038918840122622, -0.0015124271586029786, 0.0017292852032455299, -0.007525222364017701, -0.002910346791412709, -0.001621237845986702, -0.0035948563240813637, 0.0032209284502414015, -0.0006066130670725624, 0.0004967901375352298, 0.005227828634165777, -0.0156503756973833, 0.010479376767569252, 0.026896408604346125, 0.016093885040255204, -0.012164996052168968, 0.0024004899626181068, -0.004211605116319641, 0.001148547809766869, -0.00041474159735406003, -0.00533130253662207, 0.015084548188902938, 0.013417798709976022, 0.01876509419460881, 0.007047501289309879, 0.015930784010266912, 0.01457248591745095, 0.011611743685390627, -0.0044878604370543985, 0.0038617445021674962, -0.0042422725930137675, 0.0074249926946517485, -0.002174624925662707, -0.00650217390642708, -0.001643645284431643, 0.015752759867633675, 0.001981943953458586, -0.007356667640646138, 0.00026906607917236874, -0.0010548217150734029, 0.0030674990120925652, -0.016198875891527492, 0.008348984281223853, -0.0077426242373271155, 0.008109359903383996, 0.015291483611291444, -0.013802326149499148, 0.0038597990934523753, -0.003614568096392363, 0.014954467531510054, 0.018740837419582768, 0.03209549109863925, 0.02802939225159696, 0.03634114531691731, -0.0014171395374661241, 0.0010670264287627642, 0.0014064741158810725, 0.002079794917439058, -0.015258465368158886, 0.0034381634626510214, 0.00764550974724219, 0.009934798569207634, 0.00019992590271853162, -0.00222696981667397, -0.0012554713568031094, -0.010922826552041947, -0.00588356547704824, 0.013776858568535047, -0.009010755543682566, 0.009670103166559953, 0.005502091512895783, -0.017617858190888413, -0.006535290731534893, 0.0006229822284358498, 0.0006325217903592485, 0.017460730159057667, 0.01736776836103173, 0.020441862768226782, 0.02338881173071874, 0.014959876491386989, -0.00021429353374737649, 0.013923201444309101, 0.004790218906893793, 0.010355947152321602, 0.01915771281612664, 0.020521655404905793, -0.0010490943102446986, -0.00412311950766835, -0.0009211473053965261, 0.006718290096349945, 0.003913853012459064, 0.006594190777990228, 0.009476991987382747, 0.021926157866125163, 0.005601995178368582, -0.002313368498309043, -0.008796242773696328, 0.0030326677272941504, -0.00233823072903188, -0.01823638619336434, -0.004668884175438163, -0.01535586387458997, 0.006083392250242855, 0.012184154106864058, 0.01160119434006034, 0.024633493446649665, 0.024168276887352274, -0.002598343278795113, 0.010224914586235872, 0.004789977611881278, 0.011515667311704229, 0.007587619719012827, 0.0009398422603538902, -0.017827739566177184, 0.019432825466654095, -0.014124596149255549, -0.0057097245432266705, 0.006605084577492089, 0.004206821116284607, -0.014209585132904915, -0.005395802947795223, -0.008481872815805463, 0.010869287610930882, 0.015377999054023067, -0.0067440581694466085, 0.005190816826401791, 0.011743106499737777, -0.004845513535729137, 0.0023495292230468856, 0.0057605699741010985, -0.0086902739778839, 0.018178077122182588, 0.014505142805268892, -0.005941508639689603, 0.01584598235427103, 0.02941552703816598, 0.004012178797268294, 0.00924668946671645, 0.012370602421509539, -0.005028411671449319, -0.004394821798964886, 0.0006150251762752541, 0.005394765860080437, 0.003049495145156054, -0.011768222365334747, 0.011994723823175818, 0.0038273086557181982, -0.003963131235070486, 0.015046085476524378, 0.016368920536969738, 0.0042908310706480865, -0.0027403213438105816, -0.0034048211768096873, -0.004839852714181336, 0.00010058756519194033, -0.000987711516571484, -0.024570842340045206, 0.008374729457366725, 0.004435995060666862, 0.010898678737157701, 0.01879587479926334, 0.018460543662634797, 0.0033371218637406374, 0.004078999000157193, -0.0032489767963728503, 0.001203258845158999, 0.014335556337716599, 0.015073166122891907, -0.011418339091271348, -0.01622550724933857, -0.00820988843024481, -0.004331056670553252, -0.009541840497316214, -0.0013053979939109711, 0.006047349789400116, -0.016903238572542705, 0.0005647995095448769, 0.010429278556684475, 0.004051375143405828, 0.0033492780737852026, 0.017651118773435538, -0.003810024256699464, -0.002916781285031975, 0.006944047754578896, -0.017135904025625336, -0.021407037054875365, -0.018121092102344447, -0.0010628457737762549, 0.005880223415381904, 0.023911109456628624, 0.005792739291739157, -0.009315775300145218, -0.002440310354047245, -0.01023289019938364, -0.0048328909587027164, -0.019887385860569637, 0.011604867919215868, -0.0041386641064617485, -0.008281305421962497, 0.016778606029743185, -0.0012106553208871655, 0.02126006773941392, -0.0014290181669757904, -0.007256507114536706, 0.007009796807898362, 0.005209653497695157, -0.00450497507338518, -0.024470892710465323, 0.009367771557831037, -0.010570736630180802, 0.00021179280954357495, 0.0019565137228609586, -0.00717143361169356, 0.00718760280972384, 0.0009893538297177254, -0.009796914788890308, -0.008761865517947678, -0.0016442892493569732, 0.0003273813549051199, -0.003028615344927481, -0.005256120147012062, -0.009558782602326904, -0.014591941559295322, -0.010003372729563757, 0.0021194808484011176, -0.014290521383813766, -0.011251445306609827, 0.01820097190573879, -0.004544776139055317, 0.005601604977625704, -0.002594204061435633, 0.003867612416194482, 0.0007567175617788897, 0.02351623554113071, -0.0024637260203925673, 0.007387708439521577, 0.006741024205292414, -0.007613731449969509, 0.015155971052642731, -0.0007797541962671791, -0.007918226063344493, 0.004178898354175305, 0.010601428216638505, 0.017489547114736465, 0.003184964281582308, 0.013626993963633214, -0.008083363347960438, -0.005418861561163891, -0.011916858700474786, -0.013704902417002982, 0.007063793780987082, -0.015589453467527038, 0.008427944304082285, 0.012769471089954652, -0.013969455143821698, 0.009434250150345281, 0.010014551365390437, 0.0010426243581723661, 0.024215464213794887, -0.014744770719208704, 0.019631287076667257, -0.007382950725693773, 0.0003257235880333326], [0.0014683170143156116, -0.010756198112641118, 0.005442400848080317, 0.005337756127810518, 0.013183076117305308, 0.0002539387948218289, -0.0054140567051137855, -0.01676589202116439, 0.0015352426134898848, 0.012660858144108583, 0.000936082618074202, 0.007166608050469754, 0.017914690336934446, -0.018520478938028898, 0.005017924821289939, 0.002028749366222024, 0.0028651366231704127, 0.008186364641347687, -0.007426961539501598, -0.004496942814363624, 0.004955123836769543, 0.005026767469070769, 0.00818850384249242, 0.011309606128458927, 0.0020430527995918962, 0.0008175229504079769, -0.00592501057970832, 0.0009526429401218392, -0.003815395817980014, 0.001947056823437048, -0.004838186705714879, -0.0005453253590124277, 0.000676074187563917, 0.000328928248388814, -0.03065529997501466, 0.0016357939608601948, -0.020361732468157027, 0.00833563429188752, -0.0024155669155747545, 0.006292860193562681, -0.006638954000061767, 0.0016957077062160675, -0.006500088952069294, -0.011465189327726215, -0.012747651299370524, 0.006028064623943381, -0.007771487350352565, -0.022180990002023775, -0.008038075034687743, 0.011560113145774367, 0.00017140175931886823, 0.0022573273572892476, -0.007759938958902896, 0.009325225850108771, -0.017482333265211158, 0.003260498307207627, 0.015336312036798644, -0.0010467343742056638, 0.02085767148653512, 0.00112377956690038, 0.011308332427201837, -0.017665264779961165, 0.017151068982414405, 0.008105805848948796, 0.014883195233793715, -5.5474013580739565e-05, -0.00114949146900976, 0.010618738235353852, 0.010815468923406164, -0.003021739476095369, -0.008254792182763348, 0.006375156165626404, 0.0031580991045406966, 0.006914342535389991, -0.005004301743976358, -0.009397229381627459, -0.0014546756646184097, 0.005257718238090774, -0.007314833811839452, -0.013845026887660983, -0.0014247598890253102, -0.013439151518869874, 0.005499836549640223, -0.0021084920807442407, 0.015617658599756775, -0.0023889784781103147, 0.0024053907664848386, 0.001566049988791619, -0.014682927639450583, 0.006943042754418342, 0.009479427974244985, -0.01351738381482837, -0.022554711839044773, -0.008881461892610016, -0.008639614862230785, -0.01217075156265593, 0.004405456049043205, -0.012206592555381044, -0.002815547903400188, 0.01491123945483516, 0.004362256897409486, 0.005132000034261232, 0.010305162581785097, -0.0001611820137197419, 0.018348017761080953, 0.009342807997855173, -0.0009136088646995989, 0.008557009130987479, 0.00999735422110511, 0.0011733135113960267, -0.02174393898580106, -0.011930505634108402, -0.0036204318736293498, 0.013588194862464218, -0.0005304638820786511, -0.002803539215188233, 0.011195565814651505, 0.016461998290259527, 0.010896117425953247, 0.014582617569134922, 0.005330582613004625, -0.0024204871629195557, -0.002604074862719498, 0.011430010714268, -0.009764891077384959, 0.016272955965852817, 0.008642752978386431, 0.012002037285591538, 0.007532048194336779, 0.004627820634037737, 0.018101911818859416, -0.009495129481189865, 0.020974728463332294, -0.013166620865147782, 0.010402561729515751, -0.006563010992906075, -0.004166211370352361, 0.0013325508640757453, -0.004971311153573707, 0.01569761687310823, -0.008610487341462258, 0.007725724989595648, -0.008330299431749297, 0.009102010331731246, -0.008878373248290397, -0.0045689267319188615, -0.003605282127359528, 0.011448821115641036, 0.010634680509217152, -0.0031732907008773033, -0.0037525239258850798, 0.0001548942733311527, 0.012801997355067323, 0.014007067975589201, -0.00823478368114463, 0.003730320119132609, 0.007875651217203601, 0.022852932686062373, -0.0022983235968758826, 0.0006481682106067405, 0.003433641511937416, 0.0053147447684909165, 0.005389025315035284, -0.002364613212909955, 0.004298467497979307, 0.014380486022875115, 0.010717281968272128, 0.0067391687515171396, 0.016621012510640888, -0.01290262813328782, -0.015581117714569903, -0.0006957002488569735, -0.025146576092645933, -0.004597740896149184, -0.01651127187512296, -0.005034478501539483, -0.006909998358037823, 0.005045445961918094, 0.008542371826463833, -0.005502167264964584, -0.014359916533813508, 0.017157589320194767, 0.0013349358562431265, -0.004236769216714288, 0.01583310651874684, -0.005843878880718702, -0.003022644416998477, -0.0055995948720704986, 0.0024693720010842443, 0.006294160693933844, -0.006005768941409213, 0.00844827145318561, 0.007711016113358996, -0.0020080554338084418, 0.01589552226330043, 0.010902642603158883, 0.005920843942316247, 0.018313592867072386, 0.0016700416677970975, -0.002408690125509966, -0.016167265189501012, 0.01828184159114934, 0.0034355928881703904, -0.015137305905584557, 0.014878663117618963, 0.001692124367711413, -0.014723802393212665, 0.0007682858024944105, 0.0049144497637708265, -0.01208119450470005, -0.009813035987960274, -0.011784597124107584, 0.0071212772273880395, 0.0054776219126609245, 0.010038190540022305, 0.017790899954711437, 0.015908225896457465, 0.013144813169760048, 0.018850079819296563, 0.004508097336466086, -0.006369119906278452, -0.009377723736492354, 0.003941035268875695, -0.003112331034694813, 0.01779417157670175, -0.00025766401876491443, -0.01316469626628333, 0.015750055069923583, -0.005360022008364048, 0.005605103913140447, 0.017367395933417344, 0.005402132908374554, 0.0058565295321953295, -0.010050731272078306, 0.006070308906547738, 0.0032119203627258047, 0.01127056199179909, -0.00374904407099295, 0.010454669180670744, 0.0060304158389206455, -0.013704553947034778, 0.00546970659727525, 0.00012763279245742192, -0.010509358372831217, 0.006720316458620696, 0.0031725721961050222, -0.007735152605279975, -0.0036672004773631336, -0.012852367564219029, 0.0007779217005120977, 0.00584382940358604, 0.007635819844760084, -0.010299241732820466, 0.0009454141763343723, -0.005058074215572022, 0.001441464963384826, 0.0014363495883154254, 0.003857223135177432, 0.00029832045688308207, -0.00808779175951203, -0.0056200111865276365, 0.004148724284991695, 0.01729532832915968, -0.00972864074292682, -0.004521413764293435, 0.0024202090204795052, -0.002431103645175269, -0.0009086875381261946, 0.007501644045543041, 0.0017109592765619719, -0.003383335355396095, 0.017162258775513493, 0.013539118343280717, 0.0102701492979574, 0.000572591387151882, 0.006707068649861933, -0.011274217768131096, 0.0031366870800360576, -0.011176813511190873, 0.00622611679505874, -0.007501864876498668, 0.003316141724884964, -0.003523698994144228, -0.0034388259134947863, -0.008933210785063945, 0.007358128947520158, 0.0036720093181300656, 0.012305642774951374, -0.0045873277896951795, -0.004629764558288319, 0.005757268216886834, 0.011059434107184511, -0.0006143820841472728, -0.0013533322951514361, -0.001470022565132068, -0.021416206048238257, -0.012234422698314432, -0.015935555881979833, 0.008586985199874806, 0.010974673972683036, -0.008746039924751918, 0.0022942112769136756, 0.007027114061727753, 0.002190959043398905, -0.013359427879214344, 0.011830136871743037, 0.008090060220713017, -0.002674724800686035, 0.007834662971655205, -0.004232184874203629, -0.006425975219276111, 0.0017184188544545579, -0.0020925469872966817, -0.005031892817623314, 0.005939507664472575, -0.01706223854598772, -0.012370723831754886, 0.017844933180410666, 0.009688022139530435, 0.0005986517282793884, 0.006581821686344603, -0.0035176896455224676, 0.02499190402698913, 0.00257506427298943, -0.013371241588899387, -0.0021998173056208704, 0.008668408074680209, 0.019197012151622905, -0.004548763469082962, 0.007056666435195717, -0.006067757966104617, -0.0023880071836293415, 0.007972927182562784, -0.009429410294198408, -0.013516494221335627, -0.012269015568693137, 0.003881358143365511, 0.0005966631163898698, -0.015214691726905188, 0.010101444263488094, 0.00798978180900446, -0.004451736438288012, 0.008824741617157147, 0.007643913131980448, -0.013797196347589856, -0.011279803177205254, 0.0026087348081123554, 0.0069280704989681885, -0.015090686443629741, -0.009490866689832237, -0.0028892591589343157, 0.006724680098488713, -0.008529161075348875, 0.006820997834688238, 0.0004074420142724417, -0.005969913768448117, -0.00258412525593344, 0.0038059999911154553, 0.0024847305703241257, -0.0006946136805686049, 0.010741105088422813, 0.001309388970732038, 0.005925353477444572, -0.006305331987052402, -0.0029543727491809077, 0.005139200694941852, 0.0034035070344736935, -0.0011836120097958845, -0.0032441055108556904, 0.011648406703554982, 0.011253346880739246, 0.0029309534734250258, 0.015961963110325293, 0.023016582143115034, -0.013747013202123577, 0.0037458154764244706, -0.006182135512515075, -0.012370879093673313, 0.0011222809011108106, -0.01797231318596898, 0.004809377857580132, 0.0025780158054149404, -0.013990792885575374, 0.0013664250877236312, 0.013178092274733003, 0.017528934089451456, 0.004806038298923016, 0.013295948866311202, -0.0057511990368801814, 0.007075012494500933, -0.006282316361793394, 0.02555889933666522, 0.009487044760995563, -0.0003381784792597248, 0.008840562355311254, 0.0025042686566849343, 0.0234588771343486, 0.005296300131181358, -0.00021763476144884608, 0.0030952141586823795, 0.01333598209221745, 0.007073335664079747, -0.005868678084506526, -0.00800447538397379, -0.01545968585841296, -0.01641477856331087, 0.0005773691153492369, -0.0018756671059010407, 0.01779402342783902, 0.0033461196738800323, -0.012558299032506534, 0.01854137604552511, 0.02079362474697407, 0.01876134278450339, -0.0010131898446995174, -0.016482937902645243, -0.0021208564743211934, -0.008288216108857245, -0.007347884815279605, -0.00834161923586272, -0.0110632330218067, -0.01549472881298919, -0.005414176031437691, -0.024138405755519923, -0.007274424391821561, -0.013202487011419035, 0.005287339021449129, -0.002119898219792462, 0.011626508707449147, 0.0018138486706581257, 0.005877526045386539, -0.008403334129709637, 0.0071317322307726284, -0.004326393378834352, -0.017236586460067923, 0.0021213122604263786, -0.0055349961300418206, -0.009878942256332865, 0.02807457936278672, 0.011468882699241694, -0.009843620917206256, -0.0018558332901608917, 0.008349721383418494, 0.007749539941898674, 0.0021388148616198217, 0.0136763537234042, -0.010430273100095451, -0.0013639182247804928, 0.0014828268106905852, 0.0035664396486692405, 0.0046092061747666615, -0.024223864797882612, 0.009610701062351025, 0.007443212944966566, 0.005900064268427176, -0.009264923232877139, 0.009456691471185214, -0.012251306281534015, 0.00254233419766627, 0.00707033460881676, -0.0003821068612931979, -0.012825662009513168, -0.01595011781738734, -0.019660962189966696, -0.012882519313970301, 0.008558010897703222, -0.010565821844777015, 0.012475014967151015, 0.00139566632345392, 0.016010410877906587, 0.0021556613347011176, -0.004345734573695395, 0.013632681243734093, 0.009137197617495166, -0.013391954374053489, -0.0020086108915703706, -0.004723963733809817, -0.0026063210707765, 0.0013698992040957574, -0.011427438236664858, -0.007101826925588398, -0.00724321595978104, 0.019198574845270714, 0.006423132059540271, 0.012362498572452736, 0.019535775726835618, 0.001952166322783137, 0.0016943854440336133, -0.0031422568127284878, 0.018159505413639004, -0.010644823791876255, -0.003201388319085025, 0.00032646237163399465, 0.0074709536182788975, 0.006082216461093577, 0.005063224559348788, 0.012361242886949567, 0.011835547922480696, 0.008263163808104162, 0.008540065640173495, -0.004961640609181817, -0.0029625911652391397, -0.002675131645867221, 0.007516501259356481, -0.024273015338611967, -0.002885295197260745, -0.019637450145730644, 0.009241946360546434, 0.006458178963649899, 0.004983898570320333, 0.008483948452917315, 0.025146786131342694, 0.009506744580880848, 0.0026134538910418765, 0.0020461412662614946, -0.006913264175194226, 0.002390727759272682, 0.003099255826690635, -0.011542923863238618, -0.004721512270433463, 0.006755653141915396, 0.0006474383614348561, 0.004589200548779357, 9.037710819318163e-05, 0.011294705675072932, 0.006505881565265633, 0.0038419047523632825, 0.0045898108329432575, -0.0013719469803893818, -0.010124564190768386, -0.007851320109506099, -0.007296676716799557, -0.0003249607190894038, 0.0006725337810214527, 0.007295235317429933, -0.009591519998477403, 0.0019692922353719243, 0.014752969440974113, 0.0117551438165417, 0.004574826279671561, 0.00736581651344112, 0.011591434603311157, -0.00213460815325435, 0.014301449920473516, 0.011288862636225121, 0.0032089723950682273, 0.0151838626325375, 0.0005383312160720113, -0.006467231550505107, 0.0030183987699412117, 0.0053823206396755585, -0.0032305834145669493, 0.0002633328136201438, 0.015757278973885593, -0.009844849273803757, 0.015729268545281998, 0.013180282028915592, -0.01823472122995328, 0.012534600438286504, -0.006247252161749509, 0.009129705544115992, 0.008834735170577606, 0.01553941145108231, -0.01196195353393045, 0.013135420727102451, -0.005997939423914429, -0.0011834111577920692, 0.0010432665600728869, 0.0023090567752683767, 0.011214232242150426, 0.006237861677453729, 0.0003915825161448283, 0.015915904458234285, -0.0005205477638006185, -0.002753283848679096, -0.013351909279138308, 0.02322134300216114, 0.012230955371265501, 0.0035533266603896036, 0.014578766773614294, 0.010779413169001866, 0.020280266292279064, 0.0022858699608951077, 0.011160143944649507, -0.0046093092497719, 0.011329368833029178, 0.0028669327277362914, 0.0253427547378474, 0.0070146366028292755, -0.0022752760736602803, 0.008400172368139879, -0.015423509038045806, 0.009371740358396025, -0.00608238999816583, 0.00845665570121609, 0.02251760422290919, -0.0018334683633383856, -0.00020818870072597566, -0.0025423725404954828, -0.0013186352568575657, 0.016752574502261235, 0.009690771108845024, 0.0012233019779847093, -0.011408182440951703, 0.0013831444520272167, -0.004111622882082692, -0.0015039177092688173, 0.029484120855461822, 0.005024748355338843, -0.012547506724571895, -0.005886492138043995, -0.0010762880927412735, 0.009578231918880771, 0.010650746993335397, 0.009292453527274652, -0.010057642802043309, -0.02336038720214578, -0.0038543077983680847, 0.014544331509840127, -0.002090747883241606, 0.008706574250496034, -0.00996225133323248, -0.006340063858502693, 0.010843638482692734, 0.012119753762769827, 0.02167018106671739, 0.004349516115607922, 0.0037539300326353375, 0.008313843563560054, 0.005069022102694494, 0.011618371942641136, 0.006445632900702097, 0.003233170189978764, -0.0009961273254196566, 0.005898371716935529, -0.009076519879631739, -0.011250187926588913, 0.0027138241687050327, 0.0011435605597020315, 0.013030167840010707, 0.0007025466934853346, 0.0017451074641670016, -0.01016381954589292, 0.007496836325382885, 0.003409015165693036, 0.0024673486285072036, 0.009350633582846718, -0.009701929580043393, 0.005223385065605539, -0.00574966037916301, 0.011998435760605074, 0.021367287489748893, 0.012134297560000683, 0.005121109007885375, -0.0038642567766549157, 0.0037412248137122343, -0.007246032921643374, 0.0009396748063843824, 0.005758874910092226, -0.001466415252444292, -0.014338184238019261, 0.001973158700560114, -0.006399236716860083, 0.001250845411821243, 0.002269234885317889, 0.018868837984555176, 0.0019065512236273146, 0.014903258982462251, -0.018049612569866, -0.0036191125716061277, -0.004847015571596342, -0.014041439126696144, -0.01704895387234038, 0.009302802080676846, 0.013271679553140946, 0.005212627029107575, -0.012530314271529931, -0.020231789584557208, 0.017785560502671716, -0.0007753675955418333, 0.006688492670666417, 0.013731653844807791, -0.00996626679881011, -0.0087541949934941, 0.0011335516279248811, 0.0071323237429643605, -0.00794167261555805, -0.026271418553282293, 0.006077793711273497, -0.005682233325403113, 0.0070438784376312515, 0.006072753168222513, 0.006538503568916413, -0.005135714560642735, 0.005442877389536144, -0.009076066354878865, 0.018683895752275508, -0.003322996861180052, 0.010011235352402016, -0.001961686680811079, -0.004276681983947841, -0.010174105885885538, -0.011955955947102031, -0.006792866562358245, 0.0005536886910280319, -0.018184256796829584, -0.008455340785494545, -0.0011887341712537838, 0.005381578310802557, -0.0065956826656110535, 0.01129348287736612, -0.016938637912148165, 0.008529877035190927, 0.00462653838334631, 0.009938554468657724, -0.01301894380191062, -0.0029962098618678827, -0.009747086991089872, -0.009056398864826372, -0.01857328241943511, 0.013396176647606358, 0.0013734538756360753, 0.0057049077626699285, -0.007067207754769163, -0.005248947403716463, 0.0032840840043894676, -0.009446373328897542, -0.008237653533956776, 0.005286525126809894, -0.012313419234718126, -0.004680015795230286, -0.002449716991938665, 0.008009287791743189, 0.00020151789325337452, 0.003840533440631587, -3.340827055258441e-05, -0.006413871241194137, -0.018399685652877317, -0.004337385673358638, -0.013324449697304048, 0.01962187383606067, 0.004355158214330049, 0.011583576820226418, -0.008089266818017854, 0.0008593045626349184, -0.011501200877970538, -0.005565614047177038, 0.005054127923362251, -0.0025916932676452267, -0.0063470404357927074, -0.009009800978753837, -0.007597283131234824, 0.007876335185619846, 0.002464986349901537, 0.003769363124514216, -0.003213308362367481, -0.006173714233844853, 0.0069954983386383215, 0.007755676279013928, -0.004168677490888108, -0.002631716107918502, 0.01869030180084352, 0.013504547807717145, 3.21108220872528e-05, 0.004574338206552059, 0.0020287643678280768, -0.0045584348888087324, 0.00940068544546348, -0.0022497540794117915, -0.006992168361033696, 0.007222590900841051, 0.0041231571136900996, 0.010188359862039573, 0.0049608140882701265, -0.013423112150134404, 0.00466146422232466, 0.005630866049627003, -0.008866929480663296, -0.0013446509577373505, 0.009968880188741928, 0.014728483402393213, -0.013927317808335525, 0.011339749328972182, -0.011728668194509958], [-0.0023607696743320576, -0.009463305161654629, 0.0033988032075141067, -0.0024801641750588225, 0.0033556048429957182, 0.015755210459293765, -0.009621064216544763, -0.01610782113924582, -0.010196601161594399, -0.005640991371307888, 0.007627239225171535, 0.0036356806195896956, -0.0041116287224210405, 0.009765556709937132, 0.0023485549402490866, 0.002831782710461342, 0.022464385412522155, -0.02193335411299683, -0.0007567184999016513, 0.0044625672205117805, 0.0022462909881206484, -0.0039593681547444885, -0.0015339255348838683, -0.0074019261667114715, -0.0021011573825820517, -0.01515116159237981, -0.016515126866428892, -0.006944905670785004, -0.006851981456330412, -0.0063647545677854135, -0.013944356034359387, 0.019255483893728654, 0.0035301167274927937, 0.004556855388270872, -0.011235138699229617, 0.007870823450970654, -0.006824668724563493, -0.007881926565936368, 0.014684026392085837, -0.004023506602658134, -0.020811545237217392, 0.007839758171574188, -0.000362095400401148, 0.006618507041467663, 0.0014309295698729835, 0.0029740447579504614, 0.003398549636907851, 0.02192834800822889, 0.011240496263572052, 0.0010736251912237575, -0.006557208499114778, -0.030912156164999965, -0.005661845563914552, -0.010093061487698911, 0.001479370399037291, 0.006486895278922204, 0.004748670770574007, -0.013323051215189655, -0.003787518287158768, -0.00021737488760906133, 0.011821305761435929, 0.006756498749232185, -0.003985664428553287, -0.006973011724518195, -0.005533398338148235, 0.015110501045090034, -0.009962584498147766, -0.018771235862304243, 0.004978390098458542, 0.00401955174584949, 0.0026508027126605754, 0.013311513162391903, 0.00028217108587531376, -0.02456072225523003, 0.0032763345108717734, 0.0032403690915164354, -0.0007727319032992802, 0.0064712911609760655, -0.0001641672338053057, -0.0021677711581621194, 0.0014004263638453817, -0.004725126089832516, 0.00921194053285774, 0.00978683622356511, 0.007416361177684132, 0.014832616045839506, -0.00835273815561129, -0.035733988235156285, -0.011078775428135052, 0.001974781843835774, -0.0031462943294219823, -0.006483938474939221, 0.015088924007461995, 0.01947993683960794, 0.00979432484305161, -0.0023034407714417433, -0.00035837753472758513, -0.0006939809731986723, -0.0032484431748181527, 0.018752121030281666, -0.010708440949096601, 0.004080752361075923, -0.0002701762465891552, -0.0011749570026526762, -0.004008659271404211, 0.007431243570086205, 0.0065925361855700875, 0.013262358530257184, 0.016139549016175366, 0.003275612618584202, 0.00041933918043131395, -0.006748732689166663, 0.010352572260061983, -0.012084581151332324, 0.004106057905561975, 0.0023568721690253734, -0.007483762476704844, 0.004814578368345025, 0.0018197944244307527, 0.0029846031473977825, 0.013564061157068232, -0.007398359522972865, 0.0008204608711172472, -0.013665935947149791, 0.01770000529478405, -0.00296349649620656, -0.015732446326523215, 0.004124080638409806, 0.004212553737035058, -0.006840229400244147, 0.0014549373952488895, -0.016434363437092727, 0.0028931792431991354, -0.01294852646337988, 0.00016990458027965713, 0.00014479616996855053, -0.009521437241517829, -0.008018032638847889, -0.0005884900505620898, -0.012184249683919676, -0.00015204573792536782, -0.0036655090736495907, 0.0009435901980806861, -0.000212670583320187, -0.0005396667778009657, 0.012092065957807702, -0.001317351281480751, 0.007223692813356674, -0.0031372935818624803, 0.018179730853546346, 0.005088555125438913, 0.004808763178415551, 0.010326910696901814, -0.00386410645873742, -0.007731141440792366, 0.00028379141033004325, -0.006361825046206518, 0.010696332156292895, -0.013339386497220973, -0.006124281661081119, -0.006880527314451695, -0.013306304476995656, 0.0023648109845719255, -0.015396785693455886, -0.02181065815990181, 0.015468037064908987, 0.006872986254536124, -0.008337578190017073, 0.0027289538053050246, 0.011298380301103722, -0.0008851926287430296, 0.00493448172642423, 0.008794184818940606, -0.004773818761834534, 0.0009409576422577833, -0.0006223208821985169, 0.005667122937436846, 0.01594291978514278, -0.004426466863945901, -0.006051048241342067, 0.0008868105336631838, -0.009190631096803624, 0.01913215382696092, -0.0057858596504036085, -0.0030589072233835183, -0.007427461534954555, 0.002275820072946073, -0.021314776651789897, 0.006542366177459184, -0.009058360889325866, -0.005434402906819485, 0.012025765784924454, 0.01522663990197313, 2.8705968102744434e-05, -0.004894507240606343, -0.003377686515550621, -0.007998645483341175, -0.015894537718782013, 0.00628159870877526, -0.014995924804793576, 0.0030311627907775055, 0.0129188452565298, -0.0016293591828835442, -0.004606011769399372, -0.011309025148708046, -0.017640091502225373, -0.00945824231398148, 0.002980896862789135, -0.015221751785223845, 0.0003536440763337026, 0.02353763178963129, 0.0018168411910904647, 0.004154425613246828, 0.014704777910220833, 0.010981260367351585, -0.011512490399354378, -0.004436375003666265, 0.012071674803577454, -0.003125243298174984, 0.0003397838235168043, -0.0009992543965694223, 0.004500341171066448, -0.005410697900839979, 0.003206498763960683, 0.005418445245007948, -0.020873603419686963, -0.01142384464999324, -0.002988337531091989, -0.008051704717808644, -0.00905139417955401, -0.002733345749285213, -0.005267090136686404, 0.008189373523450704, 0.0013618218051599357, 0.011847001517729112, -0.005379655110240663, 0.0013370656474548754, 0.0016431372753130565, -0.0016647838297362833, 0.005350087705937778, 0.006954592359626544, -0.002434959810411286, -0.0025966734855859606, -0.0032306733142612428, 0.007933870998023416, 2.1750185244977574e-08, 0.007610525605339858, 0.013395092414462767, -0.002386008781821905, 0.004035200944194251, 0.01079217275384762, 0.008696109142664938, -0.00309738786754893, 0.003610239737595258, 0.00888487798392758, -0.027081598915624457, -0.002164992995462483, 0.005677937874581384, 0.019989847557804554, 0.012919982565985014, -0.013268185567941114, 0.010537968619442844, -0.007794278709549994, -0.020310301669124058, -0.006781706063357909, 0.0046122593102128915, 0.008249142175847825, -0.00907386565479626, -0.000698906824697268, -0.009849390817757972, -0.0003639633041546346, 0.0015149187859958223, 0.0020227990148643433, -0.005697421810855486, -0.03050632754102967, -0.0028016999219871515, 0.009277588974471151, -0.013373444951450023, 0.0053725697823398064, -0.008283376970088806, -0.0025596739724912023, -0.0136502505480529, 0.0014221377274709613, -0.010402564138549838, -0.018263565738178538, 0.015286311515659614, -0.0019430509488911369, 0.002550196764134841, -0.007010696779407304, -0.014344328513288455, 0.006831705015176754, 0.005992155167335239, -0.0053559980775293335, 0.0027314391892535547, 0.009342923240607537, 0.009445635952933585, 0.01958891621572473, 0.014975108156123632, -0.0006221340039031546, -0.008426381225515464, 0.013368486893517832, 0.006878323498333126, 0.009746208001492134, -0.0029354711232156194, 0.008777984745898432, -0.023448313525586763, -0.006859826910556607, -0.0023600374304892447, -0.004349679804379305, -0.0028802669105572336, 0.0063346104949468735, 0.0056225018840936405, -0.014379004903496922, 0.01821595220328733, -0.0011438827368679986, 0.001406181677736737, 0.009656797507216049, 0.00502997605777777, 0.0003192894022856951, -0.008328551879488737, -0.006195454115111649, 0.02157478755007945, 0.021951052422987272, 0.0028168913222917265, -0.005580679256621282, -0.0084196492089721, 0.006942861388469373, 0.017300835710539676, -0.012314407794298845, 0.0034547829556032168, -0.0004427677805376326, -0.00042558960960111105, -0.003878868218112259, -0.02566359153431869, -0.008615549904851898, 0.0011040544544309368, -0.006710199392842943, 0.001799236314418815, 0.001914924420689859, 0.007045691048763934, 0.003947675306962915, 0.0033882508403654792, 0.006532435430981055, 0.002535496096810606, 0.0076938045596499, 0.009310369102941812, -0.014167573053764322, -0.003529908557524412, 0.0060665067280076725, 0.01024250474916973, 0.011250817646169815, 0.005753033979430896, 0.010475890551983712, -0.003867197635373254, -0.01134612070631707, 0.008402805775530977, 0.005591392627980314, -0.013295427379618342, -0.007762321029147506, -0.0028731592193787653, -0.00937747724492729, 0.0105510871549683, 0.008419073432196944, 0.008174470918197103, 0.0029964715423526386, -0.005189954590215567, -0.0061875434467458315, -0.007757363787884587, -0.00585617930376258, 0.01564355178174184, 0.002440734486016815, -0.018316537079165734, 0.0019649486762950215, -0.020200904406694396, -0.01479205908607628, -0.006068056069655414, 0.006064492856871638, -0.006185282000237288, 0.005055185572512432, -0.021613508009356536, -0.007188852823890183, -0.0008365537136081801, 0.010967232050533637, 0.014067774659140216, -0.0080852922341343, -0.006183088955107558, 8.43072565259941e-05, 0.014921729650199481, 0.009908532594196433, -0.010986409938292781, -0.019480330170887225, 0.002779990124198588, -0.008137356153965663, 0.005128485224032812, 0.0037007258606370596, -0.013697706499612038, -0.008944965601258379, -0.0034044403615568993, 0.0011473150657559542, -0.0010126319929603593, -0.001303813802248404, 0.003497066007425319, -0.01249062549763458, -0.008415526253024545, -0.01091766430123496, 0.00985765853256447, -0.0029243861049460143, 0.001079010008763646, 0.007105879088830476, 0.018136422085913675, -0.001116491234608023, 0.014966412929603467, 0.0031218818161843614, 0.004831306405021073, -0.007033681692607176, 0.025204902691891275, 0.010951370196018396, 0.01704486729874211, -0.006493258553498809, 0.008027577465476126, 0.010834398672164396, -0.0007308671242592785, -0.003945979814339925, 0.023087430135833774, -0.003970765021271601, -0.001019911495914612, -0.0036386232296463294, 0.0008702456996002229, 0.0012681961762420753, -0.0012149027635278134, 0.01057751781033304, 0.010171457186692465, -0.0024180665883464614, -0.008634387035644476, -0.000768439865899631, -0.018166839918369506, 0.006253200497615239, 0.01922372550897391, -0.009601003974319887, -0.007820792414314524, 0.01635458135541921, 0.007302321000018377, -0.002808597427798578, -0.004812272360371361, -0.007942434237519268, -0.004928958857916221, -0.01918459160389568, -0.004382806159156555, 0.015002925663533468, 0.0021998849968105877, -0.004478567398743097, -0.0007770374814752367, -0.003290084330303728, -0.00017859162067290548, -0.002963373906567685, -0.00405448189554443, -0.008721525142663424, -0.008673509481406834, 0.001435727541226745, 0.00900428202984065, 0.009976244681267905, 0.00969105623176181, 4.833526079954714e-06, -0.002835098197562573, -0.002186178218897204, 0.009096953790180495, -0.014258206597358873, -0.0005018457379219046, -0.004322098602222818, -0.0065859669598700744, -0.0004698129337344823, -0.007604844648288514, 0.008894829455931298, 0.005460649833098606, -0.008844730211372814, 0.011665897916058772, 0.01054441790505029, -0.011367215287075107, 0.008163432163602354, -0.006571863299431914, -0.012422597666469368, -0.0015181837059348921, -0.012024292914996449, -0.002322402583780308, 0.0362526699025826, -0.009501989483753099, -0.013113371493715555, -0.0014320532697093102, -0.013563896628554652, 0.015194145217289911, 0.006502667784881679, -0.006608218231596463, 0.0003729337426644526, -0.002044750170880088, -0.009401337325321545, 0.0058532111438530186, 0.003174036721657373, -0.016015387342499795, -0.009412435289396484, 0.013481498027057079, 0.01751580977804854, -0.0004736679642245301, -0.00016389835022260756, 0.00675583440784875, -0.007594803971896727, -0.0010908206633448525, -0.014910827683154913, 0.0007922041693383487, -0.00521805135898176, 0.0040539209633125425, -0.005950883141629465, -0.0022795887647231046, -0.0011688137517863162, 0.002286328979691505, 0.0019124200022268255, 0.013518901187243172, 0.006183130007168791, -0.003081989832451642, 0.0017864764556539884, -0.0018452883805907922, -0.0007399236334866802, 0.0038608000480124544, -0.025536622578097076, 0.014843715477280492, -0.017078600445976613, -0.0013886640702402819, 0.005997642446352646, 0.006610627972303888, -0.010365448869319416, -0.005207459861299821, -0.00892119476931177, 0.0003668497188153128, -0.0018366024807588528, -0.0031520091993252077, -0.01463338380723497, 0.0014344718777228411, 0.013598244069890943, 0.0015167689127127918, 0.0012112193734029994, 0.005603175722788187, 0.009859818346912283, -0.009694799403726796, 0.009591482752714285, 0.017210480821084038, 0.011330135719185952, 0.0019371523672454094, -0.01122118819177217, 0.00735154475798075, 0.008860160765705212, -0.007552105976252156, -0.01610151965933873, -0.008147429671999735, -0.016892074594283372, -0.0033699542982623004, -0.018450052377345025, 0.0019037334805790957, 0.004267766879095452, -0.0035608012249560453, -0.021807966043796284, -0.008952246058855055, 0.007187175432960432, -0.00467457994869235, -0.0045427573814646426, 0.0017709678095695635, -1.9970378275505375e-05, -0.018047173155609362, 0.01165336866002103, 0.018758503695578632, -0.0005384102155384891, -0.01859443098077302, -0.0026702345155160136, -0.0034233862619288593, -0.004998758491063204, -0.01301236109469788, -0.007014311266609958, -0.0016917205820592945, 0.0011896192234368145, 0.015992649587343536, -0.010505890627135535, 0.005547980836057088, -0.011506003532001485, 0.006296987939672014, -0.0005776877002294199, -0.008472407234705782, 0.005931733423286148, -0.013070936820740512, -0.00041160792943656605, -0.015502744750443003, -0.0005372135977737091, 0.004151684348862093, 0.005408614232282718, -0.004715451772564683, -0.01386700763967573, 0.003932474443169274, 0.004831147287601226, 0.005125254866493752, 0.000866260527808321, 0.00018621742669701008, 0.016553654754809338, -0.00206852130962795, -0.021458520987857884, 0.0064417429101998, 0.002950137363105163, -0.017514507427773586, 0.008340200293445205, -0.00446383508821978, 0.006014025771864684, -0.004928928139444356, 0.010100170109175426, 0.021256887703904753, 0.010777568858637156, -0.0025337385800933707, 0.012025722890990872, -0.0061923875966790635, 0.003704778876253642, 0.00262003286606737, -0.0123676811831438, -0.02040358928144024, 0.012367511833989512, 0.007980003013598535, 0.0009225607637523409, -0.0016651999300002118, 0.01425229978563797, 0.013076236247420103, 2.01725713132723e-05, -0.012391065787626757, 0.007174894599721861, -0.00635271404022603, 0.0019388531899077427, -0.004592934041050029, -0.008181428762555724, -0.001133302034831443, -0.0017022209836572697, -0.004115733175751486, -0.022918722018267775, -0.008523946512997078, 0.011899973964190468, 0.014443756563288761, 0.006669425493075759, 0.00897023235899532, -0.007270792655220388, 0.00976011897103991, -0.007374694906093617, 0.015347656384011985, 0.012788106399081282, 0.0016008744529818824, -0.019311344640869154, -0.010881710760816914, 0.018286949414163423, -0.006252796969423058, 0.007240538884179841, 0.016144350259746185, 0.00471038246011832, 0.016367535552512972, -0.004383350258201583, -0.0025194547314206723, -0.013055133159487678, 0.007130038395497455, 0.0023624244892849725, 0.005029409723672563, -0.0039724343221121455, 0.0019796286189906363, -0.006300591061525127, -0.005556564841361557, -0.006039193630231146, -0.008712100108545824, 0.004806643538015521, 0.0054636806729500475, 0.018787089626258278, 0.024161482755916515, -0.003368858961651586, 0.008450662246868692, 0.010766390515089565, -0.004700695328646816, 0.0060011897618769995, 0.010517966162158257, 0.025308667732650624, 0.005284454059920536, -0.01936610522484828, 0.005650213826071723, 0.005472044947977843, -0.008635459154954315, 0.005731706452475589, 0.0004149630315939293, -0.012858047528839475, -0.009268687521323047, -0.007660507593180959, -0.0025487094829545437, -0.002704589141654862, -0.01229314788300112, -0.006003474672661487, 0.0023317187110528316, -0.0011854017213606617, -0.0049532655144526, 0.0027302837964536726, 7.242194537893588e-05, 0.004723638104089858, 0.015439834297082356, -0.00797910139105954, -0.012782014138422719, -0.004477068561233233, 0.00436790017575574, -0.010995900714376675, 0.02107295281431854, 0.002746631999568569, 0.013745859543803229, 0.012196906353303132, -0.001462752038499093, -0.004898178154721018, -0.004033364250399462, 0.00032165871102665504, -0.008785256867324816, -0.00493610444911217, -0.004198595643583227, -0.00668001485929873, -0.0059344718814293845, 0.007290037486991056, -0.009135861033755405, -0.008327591276567979, -0.010179018588670104, 0.011366505893744655, 0.0019636021788032847, -0.0055732088529144574, -0.014676636258204485, -0.009398390433747057, -0.020745119142366993, 0.004898635820978611, -0.005979157144145604, 0.013978259676312657, -0.00627202084675078, 0.0073801714459131255, -0.01949046319128467, -0.019347074654283626, 0.010080972698318003, -0.008174253160702348, 0.003905511638520528, -0.008153448441613467, 0.0015325193715554257, -0.0033138264613945907, -0.0064810176615343025, -0.0019038081359537408, -0.006661014131313596, -0.008856297601681166, 0.0026061807595782675, 0.01277130103272484, 0.015609177690427163, 0.009945906091273616, 0.005376060149884654, 0.007436763892140953, -0.01636408267076223, -0.01079651492767092, 0.022651357930986403, -0.0009674252751221631, 0.013629188606054938, 0.002564381657649059, -0.0014150671846365156, 0.0025396580224590747, 0.006296917639289724, 0.018905915896579785, -0.0018769817359768433, 0.01609698868370071, -0.015773075320743603, -0.0008489705551563509, -0.008689305358029522, 0.007364162128544814, -0.012623036768015156, 0.009221663928737354, -0.0016684597961112856, -0.01695829394542934, 0.0060297006699003095, 0.0035168850463897553, 0.022149172741798576, 0.0031100063554234908, -0.0032823035054241902, 0.01540386674202476, 0.016432582648448282, 0.01009394764435198, 0.004578135321104337, -0.0038782148356575194, -0.020593842160020363, 0.026963218793364448, -0.0196010616970131, -0.007480567014010188, 0.006212725232028065], [-0.006622059496907229, -0.003535070805618629, -0.006358562515665921, 0.00644979029912428, 0.010760458605727267, 0.0041654044742435135, 0.01009355389934234, 0.014931439386259656, 0.016530741633938046, 0.00865523933543176, -0.010383609600980599, 0.013790515656332285, 0.00910008882412569, 0.010525617403115816, 0.000434271868170918, 0.00472932404457034, 0.023206266894946866, -0.0023666349765035493, 0.0033680378701459283, 0.010648766367396709, -0.0007010984887474395, -0.0003341017213235855, -0.0015661827469226352, 0.011710573315718063, 0.002184506593125296, 0.002200075194995828, -0.009585730149762673, 0.002927223086197122, -0.007727923206351291, 0.0004125827873345847, 0.00579251703320797, 0.006322074878623193, -0.011035371132188073, 0.014035889004152561, -0.004614287248756003, 0.002969868999213005, 0.00610569794210569, 0.003386222017101879, -0.013002082716784349, -0.007916302735821223, -0.009816531792785601, -0.002837849167186359, -0.0021503698246623294, -0.007742994451673489, -0.010542308440783438, -0.013167849855417125, -0.010208306159178254, -0.013114509317758271, 0.009580585552608224, -0.011209695426499081, 0.0048919110649761266, -0.019918779455206294, 0.011132024005697986, 0.0019075715065177965, -0.00814009500340011, -0.023969968236886668, 0.005690172287254337, -0.002132995287357148, -0.001897128226323275, -0.009377077700281818, -0.005818775802268796, -0.013953172188433872, 0.006077560282992928, -0.004130482195545843, 0.006042165020175281, 0.023289904970624036, 0.01484691974395819, 0.0208059220117012, 0.0004789860119122414, 0.007231507249213173, -0.007712746478516245, 0.003149270160871633, -0.003810939529516812, 0.0103777510696078, -0.0020350138122591887, 0.0038831110982127663, 0.014891745713150177, 0.003461066862254905, 0.0026505639574175275, 0.0035907474370716107, 0.0023337955883000793, -0.0002938655448061518, -0.0005101852612669093, -0.0068377381142805576, -0.006113848854913505, 0.004909275342126532, -0.0010901663292179373, 0.016484526367396217, -0.0035942547458712253, -0.0027542373011746816, 0.014383929426217601, 0.005683527297208093, -0.024569983345517687, 0.014465499471084189, -0.00994484508289919, 0.013847780680483486, -0.003146799662557033, -0.004560260067985559, 0.009080656814804989, -0.011951104508995935, 0.0045021886461309125, 0.0027188819916217724, 0.006906313040324833, 0.0059903233439122325, 0.013680740741584542, 0.015512549296110194, 0.001973574894747332, -0.009419094818438957, 0.00013906858577272232, 0.0010987705154499904, -0.0030186062987910666, 0.02338076842735577, 0.0005854186858451171, -0.016871330559272816, -0.023609790320488544, 0.005065098966554087, 0.013378640866208087, -0.00817375388066891, 0.012657924918337523, -0.01848271662660762, -0.0024297524706517483, -0.004901333536103406, 0.007408940395822377, -0.003249707199595827, 0.012413084411599365, 0.0006266948818310758, 0.006673593098875146, -0.017895733723588946, 0.0021085907496941046, 0.00615711940433954, -0.01017443182695875, 0.007342534345920502, 0.017601255997528525, -0.0025798153523405327, -0.0032726374440105754, 0.007285181593464144, 0.006500293108178903, 0.006639520299101778, 0.002347271474504501, 0.004681995616987279, -0.005206345794613372, -0.002122276875711905, 0.01576715787594019, 0.015041313943914577, 0.008339516657440304, -0.006110986955548545, -0.0024985266479255015, 0.010676580204089223, -0.0003740144768310161, 0.015787794914924904, -0.015135311937833809, -0.0014699135369476313, -0.010759462694596038, 0.00645678395427648, 0.004415355097857019, 0.024654387202611462, 0.014998195413118738, 0.042074600732942155, 0.0018221091423666596, 0.014269000014738785, -0.008910726758080568, 0.003571157151260509, 0.005143158342112256, -0.00048048376462054605, -0.0010786344818639818, -0.007448561670544997, -0.0073839214461530415, -0.018815769178064285, 0.019208319569991784, 0.00011625038894727506, -0.012771264110210236, 0.0037091297256721524, -0.013998258540967819, 0.010200538097094779, -0.0045612872056398635, 0.0065155674923919405, 0.010045614329395972, 0.008045376991348949, 0.009712925296932982, 0.00956325767066951, 0.014912751264406639, 0.017363371990584058, 0.027913816522573343, -0.011830419504686654, 0.021087711935445248, 0.00399666944148466, 0.010304286143345939, 0.0038866948144189355, -0.008283363038234804, 0.003959407295486874, 0.008026710056986212, -0.0029892274767718387, 0.0016948380908335826, 0.014331400971053563, -0.004945019669811515, -0.010769709778136896, 0.006464205714890924, 0.01324489258748017, -0.0011197677823970883, 0.009179104651890011, 0.005074166569845586, -0.01972856360416387, 0.005133026049823855, 0.014331636967580311, 0.006197454460051374, 0.014036905278550633, 0.015041028807846975, 0.005997553254433575, 0.0013827284982996335, 0.02176086521591546, 0.0007584808999707771, 0.02554166062138768, 0.0295600378889087, 0.020832598287442626, -0.00361235019727606, -0.02100347066653715, -0.007587094822208862, 0.00447233779502859, 0.0016399704799568795, 0.007494310829634387, 0.003176755480990868, -0.011386867281642735, -0.0046577679061147554, 0.0001433181024038781, -0.0054672326648828136, -0.01141474264656745, -0.013967488921858248, -0.0017130057889866797, 0.009945515110642823, -0.00018607929825349904, 0.0029862653093038175, -0.001326685934466448, 0.0017717888608522283, -0.005410423524226768, -0.012188071200517932, -0.010340628559566438, -0.00815331181685824, -0.006437301336567883, 0.0178853873424, 0.010793853429841932, 0.021482165668556742, 0.022732650218035663, 0.006434863558413299, 0.003934878301166372, 0.010478206490743009, -0.011658626718279974, 0.0033406483060179535, 0.005252627975710472, 0.011821938628512163, -0.005551375780182289, -0.006266944628562783, 0.006964157922327532, 0.018948837459328554, -0.014753689674313555, 0.0044818753271895825, -0.010676991525201858, -0.009871795902956873, -0.01488588955829279, -0.01339075464095301, -0.010372233839201217, -0.009384930786952312, -0.0017180174190245916, -0.020973558491341127, -0.00014850008537808972, 0.0006514299291767063, 0.009196180186817978, 0.004701954670636691, 0.019874918418363252, 0.002512440566853339, 0.013692980149946713, 0.0007765994604007323, 7.03525472464463e-05, -0.032057846206308874, -0.007582631240119139, 0.0009067499857387668, -0.010597843779347492, -0.014320602967514525, -0.016289639392786194, -0.001202060389283272, -0.007858587547030609, -0.0050272690783722375, 0.012846192723886492, -0.002635811464705275, -0.014653561387525096, -0.0007457787213657241, 0.007738408177250901, 0.0012328702770645164, 0.010964863003700736, -0.0017234786979270804, -0.015004675357235464, -0.004118472550248062, -0.0018442361752541228, 0.0034383309923458776, 0.003918805892174266, 0.0187797881287018, 0.030550473015857914, 0.025891056533930538, 0.02905197511117268, -0.0020746316652544357, -0.0029417320054664574, -0.018303647668722778, -0.024587742448076245, -0.016447419851893897, -0.006688175644752646, 0.010621844034986158, 0.001397435565976016, -0.00825759445406303, 0.0006501760586920468, 0.004621314791138031, -0.006345539529269453, -0.0035501246655037563, -0.004207811208141081, 0.013400835432456891, 0.0010290948806189592, -0.00020473163391011715, -7.538505381859903e-05, -0.020346969165535276, 0.0018565908972104177, -0.0034186337518366124, -0.011814783300278884, -0.007094307338364909, 0.005334906431857292, 0.018283825395081894, 0.029918735943645483, 0.018236230984075275, 0.03078264411137243, 0.016726914401454, 0.0039822455396657346, -0.018796285230916795, -0.024352557683179676, -0.010058215427494147, 0.00895536641662214, 0.012317911693658331, -0.00701182015842825, 0.006407795663079058, 0.026573466732378502, -0.012366594998808352, -0.0036283590394320933, 0.019122926249036866, 0.004013770645343315, -0.00464264624249673, 0.0012244684986546328, -0.0013840176412642914, -0.0017322375400639198, 0.002600071035440354, -0.01259567464859345, 0.0028305131624497154, 0.011064722607257016, -0.020050754878372552, 0.009134289997067677, 0.0290301270086454, 0.022164086493609018, 0.03434979729325442, 0.01513927368678851, -0.0023700895687528206, -0.005375739762918737, -0.02514179517518771, -0.03544830055698608, -0.014138493092558326, 0.0042717841831728135, -0.002789169770884083, 0.005050450420043087, -0.0017908492050641308, -0.002732949550589243, 0.014866424595874077, 0.01068620404579162, 0.006417726282913042, 0.01607637702881319, -0.00866649024711257, -0.01330113172058023, -0.005960949403496308, -0.0004073764385342953, -0.000764303684201335, -0.00942173296541977, -0.01204219789561067, 0.008688916710030933, 0.004967641495542436, 0.01306026986670965, 0.028253424354528076, 0.056531224969986194, 0.02432281272895526, -0.001271872803374842, -0.006853764713399493, -0.012928039885234556, -0.013080542294312275, -0.001545352360407605, 0.002369383622541976, 0.013397787680697371, -0.009205802376119673, -0.018643626871849436, 0.009076718283501666, -0.00034088903072441084, 0.012305737427383286, 0.003707648301697733, 0.007134332702183742, 0.019336371549341685, 0.019934926927937757, -0.003680109387592772, 0.003395361443403036, 0.003865053283200397, -0.014746598814618053, 0.005349230017038963, -0.0123653988200328, 0.017154151982860417, 0.00494746283821776, 0.02547281787197245, 0.029909287336469456, 0.0222426721151669, 0.01883026729911581, 0.00637026554151093, -0.023496948155294687, -0.01364914587053407, -0.0036215504763405988, -0.004328565663134458, -0.006176639812893571, 0.002302047826822761, -0.00824941354994253, 0.027542784800319423, 0.006444397428673207, 0.01255364752454778, 0.0014640301974291206, -0.020682639081460678, -0.010140071884604156, 0.009312428815010522, 0.010122270859873442, 0.004217052593459872, -0.013150175116789434, -0.014076312323328555, -0.004861161398775555, 0.002208101162564665, 0.003413466356187172, 0.019032378819295946, 0.024368213391075803, 0.022101029271297035, 0.03126315208043246, 0.015698454901826094, -0.008731130217691892, -0.008044471230420574, -0.01316413232101869, -0.024998598488958565, 0.0034046201245667637, -0.011689189302527245, -0.007257667332460166, 0.005815359744048458, -0.0081141402334465, 0.024365758179339052, -0.005784442938482931, 0.0051312267187340645, -0.007481134312715943, 0.007366221086743645, 0.006191994650548418, 0.0025289814196645163, 0.006179580807703177, 0.009147417964935687, -0.01396560373153788, -0.0179476602928091, -0.018174411888873542, -0.01889415804434037, 0.006930530080031664, -0.008856203412491253, 0.010959193414379256, 0.022089775966956472, 0.00995640488969479, 0.014713129303346407, 0.00929139148073264, -0.009789026822203888, -0.00421680047845544, -0.00781471569285968, 0.008126157790218136, 0.009217113542999871, -0.014291280477251204, -0.0028491107844743073, 0.014225326765901576, 0.01331560494709582, 0.005344713801060277, 0.002877593792582017, -0.00553790293369556, -0.009511240738142144, 0.00418197586464246, -0.009073833430089748, -0.004470544420701858, -0.008558878307628921, -0.0016570831476112567, 0.011905339058225255, -0.011291202689005254, -0.0062137678272175725, -0.006401078225211855, 0.00967290085500569, 0.005147623696047851, 0.022982833275359858, 0.005202591439013541, 0.0026011123065573607, 0.005368071699408493, -0.014974563514091172, 0.004077357054194425, -0.006742053060711687, -0.0197529108372055, 0.008550501938178988, -0.008122218950255503, -0.01351714656181392, 0.0089884696681765, 0.005237793802277849, -0.016734867505767116, 0.009927425990907441, 0.0011012427264442402, 0.01073509002893847, 0.009220506102526359, -0.0038057830691154617, -0.01289095220423661, -0.006205568509481431, 0.0004348176501825934, -0.015446576553957396, 0.01289206703232402, -0.003284897328264274, -0.007390214854248941, -0.012744984318408559, 0.012966503741517749, 0.007876288647604809, 0.00603000662897153, -0.0032741921023129524, -0.013138913646887674, -0.012072714122515859, -0.004670359715256419, -0.009705940921744486, 0.011935009253650873, 0.003038595742464597, -0.00012560811481499598, -0.00756542030545399, -0.0071038817649246395, 0.0003327752393588055, 0.0006747641034089128, 0.0051947818177204555, -0.007761237587145498, 0.010045011152809983, -0.0011881426760832648, -0.0009583182720863755, -0.012893871165664145, -0.0056605722509789165, 0.008232066896400898, -0.00880153831533791, -0.013749622929581441, 0.004520367693142743, 0.001923682672902904, 0.002165093577848792, -0.008876370691797513, 0.003914297418260125, 0.018223638613000092, 0.00850987107007371, -0.008464061230718387, -0.006208836106676149, -0.006933386515030642, -0.008363944015397183, -0.01239168731384099, 0.01917538992855317, 0.007343733914314765, -0.018135459182069186, 0.005092957806499131, -0.015051425695138893, -0.0013723475541782086, -0.0178651015839422, 0.004342150062495314, 0.019888056825927182, 0.013985847203237093, 0.0032102639197224728, 0.006701169531653906, 0.007639977379192339, 0.01902637682542456, -0.02224226631697803, -0.0016273144997649863, 0.012177805689568229, 0.009398037755528468, 0.0015694159255569002, 0.01455000037761952, -0.0077907282984129135, 0.004535557509244999, -0.0030040208816296122, 0.004285933267090566, -0.014669031496858873, 0.001339804278691038, 0.01652011440373063, -0.013232065868419986, 0.005725384688492512, -0.002510488192900319, 0.015473762640841724, 0.014253885729664338, -0.005850350267117728, 0.0014185670905929734, 0.005545546761138343, 0.0324261759415616, 0.018837789631013492, -0.013711875732287231, 0.008595695387324756, -0.0015515895278356124, 0.016499644139996123, 0.006745491540857677, -0.008189222453564671, 0.002581149253810001, 0.009789646054971037, 0.00034052700908782454, 0.021426495877727665, 0.001366550253554069, 0.013267698513575616, 0.019477499898624122, 0.0048389594156051305, 0.018157895200364798, 0.003939424984404179, 0.013686960983722117, -0.0026402085741322407, 0.00927848421294735, 0.007611240879609501, 0.007272120371967872, -0.01079208217993466, -0.005710717835093334, -0.025658780182525123, 0.008192747965761166, 0.002489978862958998, 0.0014482101339693314, -0.0025972959008854135, 0.0065316371872485395, -0.01306276818735062, -0.00952471665794905, 0.004857118441269975, 0.005330495785757174, 0.01594502066392398, 0.001366454711732397, 0.01105021219106078, 0.016759985288475228, 0.011714755754147953, 0.03109932575329295, 0.012757479040232148, 0.014281322048990732, 0.01002922051393726, 0.0049808958958728585, 0.0072046443397239205, 0.0025925358387559713, 0.011696436680878131, -0.004835995524024127, 0.015504807616891445, 0.002320604758748321, 0.0012984272962488184, 0.00030238019354117233, 0.006606860462879934, -0.007192851090449721, -0.012480739404923322, -0.008917347994273087, 0.00896870723613993, 0.0003188881042041778, -0.006018831066733284, 0.017143447656540287, 0.0051606348248722156, 0.012598490638768537, -0.001506672023832184, -0.006107867064446449, 0.0006464729841169071, 0.014315688025837579, 0.0026901725101525463, 0.013527515389637616, 0.00048156112322026166, 0.008591665902416104, 0.006828810411662393, 0.005694426238740471, -0.007345019941267589, 0.0030629801680351126, -0.008120935995646261, -0.003123544621646106, 0.0007181475225373475, 0.011669264170195983, 0.006131256474364345, -0.012243199838033906, 0.007004643789033826, -0.009329044749816445, -0.016984557511889025, -0.0021555113602138715, -0.009526906552562938, 0.008296124846423492, 0.0032509547216581967, 0.0033079864406404076, -0.0016739611157185594, 0.005389595204222311, -0.008740379257644688, 0.011871051945607046, 0.013731411517951316, 0.016383059754692987, 0.002058670491653006, 0.007013321186451415, -0.000696572931251932, 0.0115098162911225, 0.010629147720701868, -0.010118182718768687, -0.0022632958644738183, -0.0012960217278702468, -0.007404231065406081, -0.0044533618396228715, -0.004924566795586774, 0.0018178223482089733, 0.00506027607512393, 0.0056140228662332, 0.0047159297417604645, -0.006863392309298383, -0.000922824191268337, -0.014756646665420654, -0.00445976780911125, 0.005005418844181424, 0.005696752346949978, 0.010289266345295605, -0.00566612682901237, 0.005107803431086384, -0.0029728011971363287, -0.005265213427374838, -0.002887558511137379, 0.008563923482596486, -0.005194576269314355, 0.013177243610630164, 0.007740076541123463, -0.013972199328072714, -0.010921255679665044, -0.00348201439099731, -0.0071780244757875394, -0.007000707274407767, 0.0023837226823264254, -0.00805725835975611, -0.0038786493363142226, 0.006301512039272502, -0.0055254650772991925, -0.002485415968552323, 0.008832760061306396, -0.011017100760276925, 0.01297261986926329, -0.0012577825368644611, -0.008061797433137148, 0.003193290362428748, 0.016000181359331535, -0.013703137016244699, 0.009288266955168168, 0.0008235623298026008, 0.014014408988895085, 0.005694271002661007, -0.0062251909512754874, -0.019937795905117232, 0.005222285334543631, 0.006299109967272213, 0.005568754540158688, -0.0016284719326663968, -0.00585464298477511, -0.00524569182368672, 0.007171669667883121, -0.0019008410756218075, -0.0003422562723452056, -0.011280940973974536, 0.0025918557392077177, 0.00793026308354672, -0.0017655451212119963, 0.007388756760617647, 0.00968850211682128, 0.009451831607535635, 0.014125491136282059, 0.016612438224747863, -0.01589425732362473, 0.015307257827812355, -0.005623961529903978, -0.011429219873187279, 0.0037959529555072597, -0.016818170885008414, -0.00967046357206753, 0.002408644820571248, -0.017622289467197228, 0.009105924355359021, -0.01179015842925624, -0.008686711840557524, -0.010091109809321036, -0.0052982499723976, 0.0018839951533203081, 0.010142566693261764, -0.0030856291700363525, -0.003240201777072837, 0.00526014910105837, -0.014632343763279395, 0.00959257336120979, -0.003252362520672925, -0.003129659571065143, 0.007707209301386436, 0.004464968725834547, -0.02238149945852076, 0.0013651351080383042], [0.00593555600820632, -0.001402663251538349, 0.002657560935448915, -0.005363617313232087, -0.006548436420562439, 0.0030465199876224132, 0.0036928154925302305, 0.003997198400597401, 0.007606714013453534, 0.003557672204176564, 0.005667625795858812, 0.0016921129840653088, 0.014075021942273941, 0.01356198119147887, -0.0039983599600232995, 0.013158689680835979, 0.010876901539966344, 0.011207102346994919, -0.00687903916622959, -7.637070051156504e-05, 0.0017267657381156488, 0.0057041753455760085, 0.0038637042259473805, 0.008043411205802853, -0.01284442791394109, 0.004735398789462254, 0.006151627003684518, 0.022699155450786424, -0.009929367595199844, -0.0016786195636195858, -0.006256359930345436, -0.0007915506642086634, 0.008236892467421479, 0.007676053764304251, -0.0017628272726081988, 0.0017078265184407512, 0.023022177566980353, 0.007866190119157348, -0.00016724948131726343, -0.015343130535682026, 0.0020455246662545927, -0.005900049534003802, -0.0019784095699168598, -0.003974859710363953, -0.007924369851454604, 0.01164061171841476, -0.009509724820660634, -0.0019952210936130233, 0.003391776367875169, 0.0035974332178758082, 0.002975758181783719, -0.0013045748911159087, -0.003634259944101427, -0.008839912715997347, 0.008645699193786546, 0.005929532447832888, 0.002267468735521485, 0.004659568658452112, 0.007848009538381006, 0.019350996096201743, 0.006695654738109018, -0.014144761004108828, -0.003647150428125484, 0.022055886944610234, -0.0019111756672207845, 0.010970538266237194, 0.009759917966101405, -0.00937185411918109, -0.0035085890812219358, -0.007716972418112199, 0.009907251693657158, -0.0038369867176461805, -0.005115892961467734, 0.014108509287415971, -0.004409194291148896, -0.006375327919824167, -0.008018002891687706, -0.0024869316148446625, 0.004737782457643534, -0.0033891207901899896, 0.003911427415883274, -0.006246364110635942, 0.013734582942167301, 0.004937038984593671, -0.0018076215975666473, -0.0024159157133749097, 0.004361379125873554, 0.004258583034608782, 0.0010347665879983656, -0.013665894064451612, -0.00931332173381784, -0.01779469063531045, 0.0008182785477939331, 0.002391254474701421, -0.01145257171626109, 0.001513937711333002, -0.015536209215285996, 0.0013590490999586188, -0.01654462247292276, -0.010258460952001355, -0.01358559021071115, -0.0008998752400421169, -0.004441543661733222, 0.005162972809749071, 0.004172926472198163, -0.014286327515069143, -0.013496252007353859, -0.0017165327300710065, -0.00991908879007658, -0.014559805527420791, -0.007177331452593598, 0.006511451038132873, 0.0035695676832593315, 0.006728916437395646, 0.005863518368173797, -0.0076139135569197654, 0.003670584496609641, 0.007917689659591217, 0.0047073092704084584, 0.004067631519729666, 0.007924672791368737, -0.008693036880985555, -1.9219365047812847e-05, 0.005586151035857554, 0.0009159647861869195, 0.0017247680345862835, -0.014729141184201489, 0.00576381624706087, -0.0007498682412212356, -0.008658742617933778, -0.009213162069627802, -0.0019195334749932394, 0.00828239499519533, 0.005505542809620499, 0.00877509558333441, 0.006550115036568012, 0.0035181140277854026, 0.008986543775771901, -0.02223083592694233, 0.014031579312313925, 0.005205607109318243, 0.021206417762108562, 0.0018248120931955041, 0.005603712680883143, 0.009062709417252469, 0.0027441948223864724, 0.0007230297272073494, 0.0015116125415694124, 0.013891982013013192, 0.01651068732683666, -0.012383433769379634, 0.007803054866080307, 0.007216366546000437, 0.006369906898711251, 0.015843242129110726, 0.005679398463806146, 0.011118037051319139, -0.004877966109681669, 0.030220467596252448, 0.005574255446885978, -0.0008265083230260291, 0.014343984631937165, -0.006147560901058178, 0.01633057485217934, -0.015066184519104802, 0.004127618850622134, -0.015607326536499261, 0.032156815528075866, -0.004117035806677482, 0.012341939278415849, 0.0012086339925730198, 0.020184698585120547, -0.011904178258330294, -0.001307984325176657, -0.0005975076872460888, -0.010426967128214457, -0.007885970788690666, 0.002228269158884253, 0.004290059560746792, 0.0068135489103467485, -0.004959756216161453, -0.003399036148948173, -0.009587521672794516, 0.01044913808393516, 0.025331046154574693, -7.112368400148835e-05, 0.021270051710134408, 0.0016855110291182991, -9.147826959670272e-05, 0.005698843404042159, -0.003314439650083264, -0.003807747763904995, 0.015384951645800086, -0.009039310775093486, 0.0020534828015458893, -0.000703432738325905, -0.00016502366048458416, -0.011144111443185962, 0.008369668992887543, 0.007876131630159898, 0.013779498649148956, 0.008676782745751649, 0.002457250873844996, -0.008251570337573911, 0.003209198260085496, 0.01729665583846563, 0.015094571027509638, 0.007231437399205954, 0.007474061550797078, -0.003576870824081855, 0.005472645264905277, -0.006861360635834368, 0.009153280231462183, 0.0016989366242036682, 0.004722639722913721, 0.0037458699667072336, 0.021465210838072225, 0.015542476194567834, 0.0037106018626816904, -0.014841774483345479, 0.0252850299295544, 0.0028137323292161593, -0.013458655931820135, -0.007649451078866633, -0.02582742771535937, -0.002594497082261311, 0.013526625222058115, -0.014223143380185106, -0.010311196367436742, 0.028182091711433436, -0.010732005512770464, 0.013916312234937212, 0.010404298109742952, 0.011539517750368945, 0.035627010671014696, 0.024518874608370305, 0.014956816836619584, 0.022493490840847032, 0.01713607704275791, 0.0023531895203277985, 0.01054534350924018, 0.021552238980946013, 0.014038795297970736, 0.004910157915160952, -0.0014172180251583312, 0.009375045744017218, -0.02090296899212546, 0.008166973646807624, 0.008309429002022351, 0.009507928476669723, 3.296122139342596e-05, 0.006370419733737032, 0.006709590535377708, -0.01976203198134201, 0.006186960877027085, 0.00014312702086492359, 0.0027733264688713155, 0.004581705217338139, 0.0006361537083104943, 0.013041931763302175, 0.015187373456304009, 0.020292863344033626, 0.021725358442099618, -0.0016612253460995142, -0.014217693497573918, 0.02276914114247582, 0.0006391786180427256, 0.008004806958697734, 0.011964179442152062, 0.009456548614999363, 0.02080708716128743, 0.0014301714797065749, 0.016918197639311378, -0.026623973771454975, -0.008910043681234403, 0.007199676367674267, 0.0057433119008443775, -0.0011563214536630206, -0.006164111683398458, 0.007280217218871795, -0.014696278016864973, 0.004215034164536032, -0.004657144075330945, 0.0068052760395560545, 0.011590412420111742, 0.007479783124339739, 0.019712214380698864, 0.007140092914003827, 0.02590577274419963, 0.015920432262686843, 0.03725942602162031, 0.013391301468935171, 0.01482261384188363, 0.014655455196027347, -0.011774379241621087, -0.0026838740093783143, 0.014495210857760609, 0.018795116615247534, 0.005898977629176623, 0.008263337514963281, 0.001681955517491708, 0.004368015792473617, -0.010059689428353084, 0.009242296820707693, 0.0008740001992793234, -0.0036420722964973576, 0.004414908596130306, -0.003371905332609002, 0.002746094476625428, -0.0007088347059647401, -0.014350196679916811, 0.002927512803950147, 0.01016300976849851, -0.003842219044669502, -0.0003173211649957043, -0.0012088215526767007, 0.023595226810177398, 0.025304817726915067, 0.027170044807217315, 0.01198334144948839, 0.002767760233643113, -0.004957181348038521, 0.015674541593357322, 0.0023419886671081983, -0.008701299965498033, 0.016882508913767042, -0.0015198456965757595, 0.006412645091061951, -0.018879049588776196, 0.007802253338752425, 0.00044521553745653457, 0.002357685351985441, -0.003088650807879407, 0.006793220443231799, 0.008340900782047444, -0.00012265971122600938, 0.005044099529494092, 0.013818745189831335, 0.009006923406766731, 0.002136786186149078, -0.010182505926177036, 0.011440182487308811, 0.01714736726216452, 0.0015656757682430723, 0.02044659201806683, 0.03874958307463777, 0.01714582405838862, 0.0045875588179116735, -0.004959950747131653, 0.012466977048661097, -0.012294602186966522, -0.0036820122359470277, -0.005345946267838141, 0.020040285616510667, 0.01820097868856068, 0.031297001750954914, 0.013258089431359161, -0.011062738183691015, -0.0014572537526408005, 0.004482683367893014, -0.005259112825358223, -0.019629774597737158, 0.010495695395899306, -0.019064964657255514, 0.004518383285323189, 0.01140467068394636, -0.012788618011646755, -0.004216247309092128, 0.005904951035566869, 0.006164087868430595, 0.015815469641520603, 0.0036389631975281005, 0.01570272605579583, 0.004527174483723076, 0.02248144065747977, 0.015249363579202783, 0.01307989242459077, 0.010612821355349291, -0.006585099602712812, 0.0013619281452887126, -0.009474206154579364, 0.01610409011867898, 0.027275794112152033, -0.0005604538105057924, 0.013186992375337011, 0.001823094288422606, -0.0015308573901604034, -0.0068803259246619005, 0.0017109459988643308, -0.004463416822503458, 0.018870970650537857, -0.015666594892080818, -0.01121959477704044, 0.014398895321865389, -0.0006614872901914317, -0.004645589914475595, 0.0015477060941998207, -0.01325044948851028, 0.00922668568518792, 0.005385789377722192, 0.03970575252126938, 0.007966694098441003, 0.014035920244715687, 0.02098626769385733, 0.001951889843436457, 0.02702737780787274, 0.0011513264976197432, 0.00848282225068191, 0.02119007171490901, 0.013878822685071904, 0.02015794077091159, 0.02850455322878755, 0.01322073718435603, 0.0014624919424055616, 0.004431614669813259, -0.014808612523497064, -0.01914568912189809, 0.019604297238513917, 0.010901124494082228, 0.014402361073714712, 0.009202087826807245, -0.0008741583872940694, -0.0068458465804901395, -0.008189517381789232, 0.008244488153592326, -0.01040440348254117, 0.005305738336446245, 0.011231705910710528, 0.03083955667196968, 0.0038088350675908518, 0.013173174433525163, -0.0001282532856859251, 0.0013505294853167064, 0.009129927229249808, -0.0071413141079495705, 0.01671599763308073, 0.0010631780748698969, 0.017403873743640486, 0.013063526149412542, 0.01743799390238011, 0.027764079705818283, 0.003780286396822449, 0.007084864274244578, 0.003017124095749191, 0.0020547270969311325, -0.0006685847910535994, -0.008087841387757847, -0.011103550889135536, 0.006360698285839144, 0.00830926733652433, -0.0006535666448407088, 0.0017412806682474437, 0.0031358605967938373, 0.016975395363382745, -0.016103443581545, 0.004435718930699035, 0.024426954532952103, 0.026998209264385467, 0.012626525771848114, -0.007140931402873149, -0.00489954445547315, 0.002566362883345131, -0.008582914102817571, -0.002943200991470856, 0.0016584423648609214, 0.016477258809502394, 0.0033431144698091017, 0.0034729679444911715, 0.00815526181054728, 0.01949457444278851, -0.0026223891474559747, 0.017439655867780162, 0.01574034142040841, 0.01307585490688645, -0.015134628285922774, -0.003186840877127388, -0.014570190879636933, -0.00501790872283762, 0.003114460024773704, -0.011917032998077092, -0.009462468132316883, -0.01351473524113151, 0.028774781321927647, 0.012459819746065049, -0.005112247965033307, 0.011606191401107925, 0.004902318004993561, 0.011533162460218028, 0.0007940038251568588, -0.004875167778610846, -0.009666538295262353, -0.0059411292403445505, -0.0034372821956182922, 0.019945858884638474, 0.008309010270347035, 0.016000167330572804, 0.020599793016042388, 0.002690109024926008, 0.011160912625389888, 0.002177300311189615, 0.010725401809100036, 0.00951104969721161, 0.006537844534903729, 0.004362585280481949, 0.013807332945921888, 0.002773797864274123, -0.0001685979693693879, 0.019857122629201637, 0.006397039754728194, -0.002584571854257516, -0.001975055556427209, -0.00016940604867803625, -0.003916310843771335, 0.007278380217195929, -0.004758727200395041, -0.031351417842925784, -0.0070598038741342154, -0.01663265657746697, -0.02453440013276924, 0.01716437706427827, -0.0002718118458658836, 0.021943133352258757, 0.023698685873289323, 0.0250659838468916, 0.015385515504398954, 0.029333157312123798, 0.00045950035803913393, 0.002434606639391368, -0.0040148952926136626, 0.0018385102846052053, -0.005236833629323519, 0.0013943511072118323, 0.0036964312449880255, -0.0016347113348667696, 0.002968199697124843, -0.00016520342778907548, 0.01937668659758898, 0.0013814500663483285, 0.021037671766994868, 0.00750957880484475, 0.013164293629724136, 0.0062381193880905175, -0.0025365080349889486, 0.0040488084909770855, 0.01170702680881838, -0.01375249375163182, -0.02255168921325444, 0.008723193303913971, 0.005416549347747013, 0.018162583149833815, 0.016967190938447414, 0.015790350248645373, -0.005181683814855812, -0.007427568060075805, -0.002451111549314768, 0.011637739953120731, 0.0014082214684497107, 0.013640904497439514, 0.00932988428161763, -0.005219139941333842, -0.007452640016500857, 0.010527071534136517, 0.00410442990281761, -0.016464689362602224, 0.0012716378972088972, 0.01439179013696446, -0.010014308708258328, -0.0029695738466650416, -0.01332030792398847, -0.010873760729578508, 0.016502702975475146, -0.0034918763194678, 0.010407640509631295, -0.004998105413729028, 0.024886404353176628, 0.0239081322238782, 0.008233677002185065, 0.02032854749675186, 0.01735308082374587, 0.012062168830849228, 0.003769171937074242, -0.0060503038866843205, 0.007143804304269732, -0.012351296420123526, -0.002060924775997939, -0.0018254935467645816, -0.006982687049889514, -0.012378466308232168, 0.018550738628669756, -0.008125123738595181, 0.009185460164503098, -0.0012526124194535925, -0.002565888697016081, 0.003437998796268545, -0.002854132632462185, -0.001713046846008262, 0.024034718699058186, -0.002052877102825905, 0.002860617413587116, 0.00946509699035976, 0.02045621183815864, 0.006120816424892957, 0.016487993846048318, 0.01526039806531866, 0.022357356487448892, 0.014592274983497161, 0.006043362696785866, 0.030318252181016164, 0.006793289117258804, -0.0038990710095852974, 0.014047858568244396, 0.006641038394393741, 0.014803516449678616, 0.0018717952949286955, 0.005764425910019132, -0.0248253474397811, 0.0032104946647826954, 0.00800258526489857, 0.010692404045734726, -0.017495903267186648, -0.002526578404998896, -0.007790305159357439, 0.006252797371399902, 0.018707880485430213, -0.007991039607116873, 0.005601694995251631, -0.007244803970654235, 0.007930574052117403, 0.01266665135216635, 0.020849201401142006, 0.04039830310072113, 0.006093516390993643, 0.01929655988350757, 0.01998509102264933, -0.012271283088970436, 0.010589379033573784, 0.005972043051532491, 0.0016649396727175367, 0.002156243751315923, 0.002846999707342591, -0.00965528926174924, -0.007318402797364811, -0.01369018213900853, 0.008798457751308098, 0.006810487799667439, -0.004677402178321516, -0.013716546249078605, -0.000654629555528243, 0.0025749769450153725, -0.016253149266698814, 0.008182583090937374, 0.02562228116839364, 0.001184706193856325, -0.007782578728945942, -0.0033028084566895364, 0.015521700265346048, 0.010880635833786083, 0.02322180737123924, 0.015747500957129772, 0.013250076023302302, 0.01308501047198641, 0.020877353214166724, -0.0017777742571860324, 0.016604577390977277, 0.015393754325255535, 0.0013484754930647778, -0.00271131983192828, -0.0006928591738737586, -0.00810365148633389, -0.009710357731246714, 0.0035140535907730542, -0.0025409289376602147, -0.008888440254150507, 0.004161159311661602, -0.007439027368137681, -0.01637333821410858, -0.01231800854584641, 0.01702919641383153, -0.0015504477322602253, -7.114290817751068e-05, 0.013505069921943452, -0.006486474181527215, 0.005945515598959861, 0.004117153923632921, 0.008109356734027693, -0.00016717200170751102, 0.031419496426473216, 0.008939922835058038, 0.002177473268794541, 0.011538930758138726, 0.0038797643115708515, 0.013572252394001363, 0.006899399256198524, 0.012487067049631697, 0.004345514522233791, -0.011671221099412137, -0.000702544650886569, 0.009978045858386318, 0.00487090578703414, 0.006734826737515472, 0.0031879165142741856, -0.006328058308191807, -0.004052917730518777, -0.0036584726911015526, -0.007784477702431298, 0.007558973920460202, -0.014844723046900538, 0.02598745510454848, -0.0019269880742132821, -0.007243269469968739, 0.0009660144681174616, -0.006472093305366872, -0.010198535668461033, 0.004303434839083628, 0.01367291976290191, -0.01105421460643497, -0.007070483318284981, 0.02153327586066899, 0.007201419915919915, 0.003363045176617505, 0.02045360230034441, 0.012094326909022879, -0.0056526667259676495, 0.005623259149424749, 0.0017905024684263897, 0.011899948236417377, -0.00403960634093026, 0.0014399491020620746, 0.0023663013458833167, 0.002847171414948048, 0.003661991768650459, 0.002816810855336779, 0.012720892192550801, 0.004453144776651412, -0.010666595793932183, -0.0057243415016883055, -0.0015626573673978648, 0.017701328520231752, 0.012885040506888615, -0.027517660685840963, 0.007880353576948456, -0.012659397547687369, -0.003156998757246581, 0.01091046891616261, 0.0007594866605044309, -0.020031970601394816, 0.012186235620506213, 0.008623991369191687, 0.000856848840103606, 0.008359149149086885, -0.005308454958830787, -0.0015419709406784983, -0.0009162988561313222, -0.0033426289527691377, -0.009916035252413339, -0.0045183721126616574, 0.018905360966906325, -0.013274342974640103, 0.0073597123570163046, 0.0080471082797777, 0.00544875369906635, 0.005471912629812289, -0.0084107873520172, -0.005030337287742671, -0.013474149469478666, -0.0237483031035717, -0.015670854747578216, -0.011904557493862492, -0.015206020112202172, 0.01104962671297019, 0.0023367367078969224, 0.015637272398522896, -0.006201817850392247, -0.011890878639599586, -0.01192008055030633, 0.017372429100366675, 0.00867756979532662, 0.005830422255772911, 0.007336516653159298, -0.004420254741217175, -0.009933612125790197, -0.007713157981681268, -0.005613343566596052, -0.013549109554508934], [0.01263002344778333, -0.005289951678418371, -0.0014405408222185475, -0.003161386283927851, 0.005182845472363758, 0.0023809537966947257, 0.0027450652943640345, -0.0006087382576073775, -0.006538486610376462, 0.008203182706222863, 0.00847516355270343, 0.013384501150482965, -0.010742270151825793, -0.007196149346347846, 0.010477110696221145, 0.01431556000307463, 0.01356299639993656, -0.0013766391178517312, 0.019658198601738508, -0.010294403145266114, -0.004378222217598276, 0.007473498450382697, 0.0032070830443500687, 0.006124513809071483, 0.0029044407969529024, -0.0012400657872625538, -0.004941027172463411, 0.003640054178393733, -0.0013998374113822131, 0.004508285005785619, 0.005727491643204448, 0.00144777690804395, -0.004008674827595437, 0.009864233151579933, -0.010366186607325812, 0.009307586058551547, -0.007300973795060331, -0.013756645979403953, -0.005861589125200378, -0.015132637681801174, -0.002672321360259094, -0.012686875925093207, 0.008443938490788987, -0.004413126057920948, 0.0013257005076072427, 0.009205526776596671, -0.008416428452026652, -0.008357309397124665, -0.003831020828539736, -0.008678614124687858, 0.003494615932343197, -0.013619911304575901, 0.0021158038466099925, 0.0038666800020947124, -0.004510854590533402, 0.0034627047040760852, -0.008620964337162836, 0.01483196338385278, 0.0075359665111066725, -0.0044740547011874856, 0.006604372531095607, 0.008987372313528667, 0.0033282079828790808, -0.010215867762212217, -0.011203703147977865, 0.0071556121867649425, 0.016950971272634147, 0.014421979471088172, -0.011678237116259394, 0.01575150693705443, -0.008312322606620447, 0.0058755636433354555, -0.001168345327679821, 0.010282089106886648, 0.0020544249299474064, -0.009225453693951658, -0.008419038167850197, -0.0039970385453933525, 0.01173381532396626, -0.006124653593498036, 0.007330482293157874, 0.0036887695286490006, -0.015429505643419146, 0.002173601208493168, 0.01154455418949613, 0.005670548243713443, -0.024341944789848097, -0.002886275442585244, 0.007757820347619003, -0.015352674901388018, -0.006613863183966479, -0.004733751490271957, -0.0010082123605414392, 0.007580295611920514, -0.001865553130480265, 0.007624896083066873, 0.01696905986491128, -0.0017539532571343474, 0.017614064215687335, 0.0038179921916981392, 0.003010292928248828, -0.0032034900002894124, -0.0019129654862299855, -0.005234074973961384, 0.009521217728133281, 0.0030539818815502927, 0.014874220614749568, -0.013469969015755864, -0.0029275655625508887, -0.011791957190945024, -0.0062784889454154036, -0.01245129805683667, -0.018417547525404455, -0.015427723676516816, 0.016225624933992214, -0.008051951230267109, -0.009214999242222164, -0.0052733026065864665, 0.0061313904867274826, -0.01746434497671532, 0.0031017673587476523, -0.0006545956848523276, 0.01530447043459213, 0.007916526869649183, 0.02242058838087632, -0.011493505704398421, 0.0026857499576864938, -0.008706546426162625, -0.007087839525606619, -0.0034677892284995073, 0.0020431016118579804, 0.0012018797549542659, -0.004323594566623192, -2.0301680147979703e-05, -0.0002694335683045375, -0.011655932693886938, -0.008794313708393875, -0.015598911277535713, 0.003267073820986016, 0.03238362015639048, 0.012029694475984865, 0.007087723880271179, -0.0125433407882327, 0.002073391872654763, -0.017327699976553566, -0.008587487004560692, 0.0023273654420858073, -0.009690713236257469, -0.0041605388900801555, 0.010022327218543623, -0.0036160648385837, -0.006025766210338249, 0.0024619597723709004, -0.016657364612251715, -0.007722650823836415, -0.00894269623573271, -0.01971435314858432, -0.004569438432784334, -0.009651425259296667, -0.012549551152730444, 0.0089589980618198, -0.002191559462050893, 0.012074437664113735, 0.024127231826478315, -0.011150780356880751, 0.006381915336128218, -0.006528797596823896, -0.0062264160422178805, -0.008929268726353518, 0.014657710289318265, -0.00615588529680899, 0.0234471558918408, 0.012039863331686369, 0.007883338033217077, 0.009192998848600057, 0.004005668317986237, 0.0017398429908337552, -0.004727306853476243, 0.015154681291639278, -0.012462781752329139, -0.0029684495451502693, -0.010507855028979378, -6.349726014294753e-05, 0.009776100245057647, -0.014335357034720265, 0.0036048507516518603, -0.0159369264065172, -0.012827749128023112, 0.010353319583299676, -0.007767779174117261, 0.008667816986675536, -0.006211819745170279, 0.0018640785058962753, 0.0018590826978983831, 0.01146674075336606, -0.002091542115492747, 0.012118294176451773, 0.0050901278202425725, -0.015064205136156653, 0.0015544493580614356, 0.017399872757113022, 0.01494383510464458, 0.008894130546316749, -0.0027094097090161035, -0.0003685073877745838, 0.0038512124713591645, 0.005335659812325861, -0.016877600551839223, -0.0010611354949431856, 0.019939247065088282, -0.00905966150651701, -0.009019134986472842, 0.008334097924271797, 0.001458257690080068, 0.006773892012770722, -0.013298881667409744, 0.003894270613077214, -0.025349889048534212, -0.001390630630443691, 0.020018478641787466, 0.005699460632403128, -0.006603395119658502, 0.005395886118343728, 0.003473927258877453, -0.014593194283637393, 0.0035952526047396513, 0.023079329082212562, 0.0029692439379421045, -0.00898185397391194, -0.011320244235307947, 0.0235129668627111, -0.0014935199340004172, 0.006356706358174611, -0.02041218101691415, -0.021069826242187593, -0.011783119659475785, 0.014256038256903119, 0.007169678473284732, 0.0024349086392294068, 0.00785958561650754, 0.005033279641912567, 0.008320984452449458, -0.0016450018515638929, -0.01874122697362644, 0.010288040983012918, -0.012677055910174493, 0.014127875343650412, -0.007962206204912094, 0.00410040301059242, -0.006770982363141944, -0.0004873512819279449, 0.008244317901522972, 0.003795797543467251, -0.010487288072367373, 0.0051523004324210185, 0.0037420042332592975, -8.95127933636845e-05, -0.016997374674914165, -0.012847053808930621, -0.01258307692381689, -0.0028974486440137594, 0.007703816408516661, 0.018728761556253217, 0.0011630250748850546, 0.010050731986769498, -0.013836425329844007, 0.00438592093896718, 0.011080068881449287, -0.009872864153651049, 0.014110091012959961, -0.010001997792616036, 0.004465154995581459, -0.00943841262444729, 0.0029089909027926386, -0.004124183188755888, -0.0041181106198884924, -0.01915599734822716, -0.00666730303133717, -0.011668485827531636, -0.005058902431281148, -0.005794961283665486, -0.015934189624659048, -0.005264548748702731, -0.0068022353863269195, 0.009591520263596293, -0.0008250850667472176, -0.0014481472190985408, 0.006905409093571318, 0.008123009803330743, -0.004423822926450041, 0.006245587906586002, 0.004106805492052488, -0.012801339111762932, 0.008791192171687081, -0.005414397475166225, -0.0077461811255450964, -0.003497211558782645, -0.0071962471950247795, 0.011553956383045566, 0.010514412514980092, 0.011581015201682423, -0.008587875042652527, -0.009096438500232272, -0.013296165425240664, -0.014022988642936869, 0.0008700287551588358, -0.002431974194821842, 0.0002468616934113834, 0.013607344529284795, -0.0006449487324500175, 0.010030527158499532, -0.010412451299765318, -0.00647132537426903, 0.006113788124819576, 0.007840523343051967, 0.009634609410978707, 0.015388016959038554, 0.01187113964067879, -0.008028761464543776, 0.006997018907311491, -0.011167943954353303, 0.0050348117054587515, 0.0018389288377280346, 0.00025741598242869454, 0.0232772165867752, 0.003011364507099555, 0.01890011342186568, -0.006411757574195909, 0.011163452799092219, -0.01002312477695422, 0.01048533808723254, -0.01728494922221056, 0.0005590103397128688, -0.016774077588735132, -0.008069169532107363, 0.013105637293017188, -0.0026893354542176415, -0.006810148418518164, 0.0026380182339417807, 0.0017138199796090535, 0.012765953713615294, -0.021409116701611997, 0.0035411578674992427, -0.008602683830528061, -0.012153900576810027, 0.012816789634752706, 0.004201183436799773, 0.003278455826562786, 0.005102148714440739, 0.015303325060763949, -0.002042855912440268, 0.017301996357011056, 0.014404045225524117, 0.006451681797717822, 0.014173820914507853, 0.019514179054279625, -0.02753664744914608, 0.014262531551578046, -0.004486209516700861, -1.3815047308086734e-05, -0.0022931792935342614, 0.0004031288068000798, -0.006880805660164082, 0.007502525334202681, 0.01482598617557462, 0.0004746823289575714, -0.013873061623919932, -0.004075111122510434, -0.020572509272127056, -0.005835355461465885, -0.008665580776200417, -0.00022977213694343274, -0.006170933427694803, 0.014803296123740445, 0.011784514930618283, 0.009447414457543237, -0.012625811727575476, 0.01252627390902853, 0.0006585797784225098, 0.0074484447281795855, 0.02995551212346668, 0.020230952146387364, -0.0017638434561158623, -0.0031775903393782613, 0.012431247180502272, 0.011846423812615615, 0.014483630467001367, -0.006582248685209864, -0.005157312647293139, -0.012003710518866976, 0.015818403576103195, 0.0010040919025258975, -0.004981921144551017, 0.003681575801981379, 0.017592502424989144, -0.015752573377535446, -0.013763162839685388, -0.006232251405289625, 0.0033965444851891523, 0.0056292562920003, -0.022860437136702747, -0.003455465675551474, 0.015548651502049165, 0.014802022973738985, 0.006749979143196282, -0.005143693718898908, 0.01532395678273168, 0.003504673883719445, 0.007820472184722623, 0.004751003208043194, 0.0036182233318010045, -0.0066589157053545895, -0.0001084708729686381, -0.00457774032890995, 0.0038980717616021185, 0.0048115308363623115, -0.00016051201798611617, 0.003203775547834602, -0.011035701308052906, -0.016571991395899245, 0.007271744735738559, -0.012603044717567334, 0.00816421758031636, -0.01823743143144715, 0.006969630831042592, -0.014479693228412149, 0.007034467602935311, -0.020522784026405647, -0.00545817048286285, 0.0006158507174147984, 0.0006360534582809829, 0.00596275753493052, 0.01399226805768337, 0.018393108676375787, 0.00213345360274814, 0.031123669832062523, 0.004345302755724207, 0.008286839332524039, -0.00818376127448133, -0.005425401414128081, 0.013030919552028133, 0.009495394876484185, 0.009993146228876681, -0.007797373440905194, 0.005828173757001263, -0.00826393094160365, 0.004308499745431996, 0.010869765080157962, -0.01436853404724946, -0.006174038260189689, 0.015011366113759651, -0.001877213145829715, -0.0015790035018413947, 0.0038201791311098204, 0.014647752061846882, 0.02251570298299566, -0.003228445190783792, 0.001996574600227062, -0.0046022878166986905, 0.012014019320989456, 0.0010530734506947758, 0.01686730807338723, 5.5372547586292876e-05, 0.008176297177691496, 0.0045700536675413106, -0.00024720273778650373, 0.0143973907382506, -0.01105374155458671, -0.011222630529257756, 0.006878394914965269, 0.013200537338978625, -0.007760356104486273, 0.0035930994845312877, 0.004225139850839319, -0.005725160403026608, -0.012006368965084798, 0.0024508656220548664, -0.011236988210181474, 0.0009559861323168947, -0.004910739934049228, -0.0061895068387709555, 0.006889768103568255, -0.013485093530421046, -0.014277711895009508, 0.012004095667587077, 0.008701022588190244, -0.012447390111563986, -0.013849233425236316, 0.034618077010616886, 0.011322056816562733, 0.008574012955426272, 0.007786756898866786, 0.014785672007769514, -0.005913705097471496, -0.00536936303419409, -0.0006295151185936244, -0.01349589820660382, -0.012948770721382492, 0.005310995452406999, -5.1296573990615697e-05, -0.006193775684859212, 0.0053353542675935025, -0.011326258911712715, -0.008983528882712019, -0.020947168659720326, 0.013333300429312848, -0.008258115995197952, 0.011575256033245926, -0.007212815745670715, -0.013731222775821639, -0.014913060296143258, 0.00563155404474603, -0.015339643993840685, -0.005034843391799369, -0.001932961367562007, -0.0029057873835698785, -0.0034499328446923883, 